tree
version=v4
num_class=1
num_tree_per_iteration=1
label_index=0
max_feature_idx=23
objective=lambdarank
feature_names=Column_0 Column_1 Column_2 Column_3 Column_4 Column_5 Column_6 Column_7 Column_8 Column_9 Column_10 Column_11 Column_12 Column_13 Column_14 Column_15 Column_16 Column_17 Column_18 Column_19 Column_20 Column_21 Column_22 Column_23
feature_infos=[2:11] [4:11] [3:4] [0.55330000000000001:0.97219999999999995] [0.5:1] [0.25159999999999999:0.96089999999999998] [0:1] [0.93779999999999997:1] [0.4582:1] [0.44:0.94999999999999996] [0.58999999999999997:1] [0:0.12470000000000001] [2:11] none [0.55330000000000001:0.97219999999999995] [1:4] [0:7] [0:0.63639999999999997] [0:18] [0:2] [-0.29670000000000002:0.23449999999999999] [0:3] [1:4] [0.45839999999999997:1]
tree_sizes=1502 1702 1679 1509 1706 1503 1492 1718 1721 1714 1698 1698 1504 1739 1500 1501 1715 1600 1818 1504 1495 1621 1837 1481 1718 1589 1488 1728 1502 1617 1796 1610 1386 1739 1733 1354 1492 1515 1819 1501 1821 1283 1721 1723 1300 1712 1723 1509 1456 1795 1625 1598 1618 1507 1597 1258 1493 1484 1523 1175 1666 1393 1369 1628 1413 1832 1520 1840 1525 1837 1731 1495 1819 1681 1841 1734 1575 1605 1498 1400 1818 1387 1819 1511 1510 1733 1715 1409 1398 1284 1720 1414 1828 1726 1571 1331 1467 1823 1618 1614

Tree=0
num_leaves=13
num_cat=0
split_feature=18 21 5 21 19 5 11 7 11 7 11 7
split_gain=40.3322 27.7985 6.25721 4.82863 3.52179 3.4898 2.48614 1.68104 1.31758 0.810299 0.393354 0.133269
threshold=1.5000000000000002 1.0000000180025095e-35 0.7259000000000001 1.5000000000000002 1.5000000000000002 0.87755000000000016 0.078200000000000006 0.9970500000000001 0.07375000000000001 0.97300000000000009 0.041450000000000008 0.99865000000000015
decision_type=2 2 2 2 2 2 2 2 2 2 2 2
left_child=5 2 4 6 -2 11 -3 10 -5 -4 -7 -1
right_child=1 3 9 8 -6 7 -8 -9 -10 -11 -12 -13
leaf_value=-0.085743328303505909 -0.024171687854984105 -0.022072802193627027 -0.0056857241288137544 0.038258682720073926 0.030096298209163149 -0.042768466623330337 0.023047491750870151 0.034351903677490352 -0.021416241684463787 0.066604646039999771 0.00053838345570015093 -0.012544267266475791
leaf_weight=12.018773548305031 2.4765215739607838 42.50323973223567 0.11329911649227042 4.3025816418230525 28.792798414826393 0.83465292304754146 2.380246937274932 0.59943708777427662 0.33615396171808232 15.00420358031988 0.39365718141198158 0.6040656156837948
leaf_count=181 53 494 2 62 458 10 25 9 4 178 4 6
internal_value=0 0.0119614 0.0394043 -0.0139162 0.0250275 -0.0750241 -0.0191209 -0.00451641 0.0300164 0.0654335 -0.0326323 -0.0837854
internal_weight=110.36 95.909 46.3868 49.5222 31.2693 14.4506 44.8835 1.82775 4.63874 15.1175 1.22831 12.6228
internal_count=1486 1276 691 585 511 210 519 23 66 180 14 187
is_linear=0
shrinkage=0.05


Tree=1
num_leaves=15
num_cat=0
split_feature=21 6 18 18 5 5 0 20 18 20 6 7 11 3
split_gain=120.043 60.945 43.706 35.5052 24.3221 33.4387 19.3358 10.7645 10.0496 18.2682 9.81143 6.49375 5.38713 2.01702
threshold=1.0000000180025095e-35 0.89875000000000005 3.5000000000000004 1.5000000000000002 0.4179000000000001 0.44035000000000007 4.5000000000000009 -0.18414999999999995 11.500000000000002 0.031750000000000007 0.96790000000000009 0.99745000000000006 0.069600000000000009 0.62950000000000006
decision_type=2 2 2 2 2 2 2 2 2 2 2 2 2 2
left_child=1 2 13 10 7 -6 -4 -5 9 -3 -2 -12 -10 -1
right_child=3 8 6 4 5 -7 -8 -9 12 -11 11 -13 -14 -15
leaf_value=-0.016410300245445604 -0.090267447066128326 -0.054892863070551225 0.04860670182563534 0.057980758355720009 0.046054209246067873 -0.014582318934876635 0.0077032141183445372 -0.050713749537977984 0.068699939483782266 0.077054119522416822 -0.051819121321757804 0.034140903148834133 -0.014967688300782168 -0.087324611198618701
leaf_weight=1.8821347504854191 20.660315357148651 4.5590455681085569 34.580055177211761 1.5385877490043629 24.142114400863647 236.29275347292423 159.40518289804459 49.615010648965836 69.923421561717987 3.9632450342178345 4.5280293151736251 2.7009638547897339 1.5438186526298512 10.302922256290911
leaf_count=9 97 26 121 2 37 456 349 90 207 7 18 4 8 55
internal_value=0 0.0238104 0.00929547 -0.0200818 -0.0150903 -0.00878757 0.0152323 -0.0462995 0.0605837 0.0075913 -0.0732217 -0.0188484 0.066642 -0.0788256
internal_weight=625.638 286.16 206.17 339.478 311.588 260.435 193.985 51.1536 79.9895 8.52229 27.8893 7.22899 71.4672 12.1851
internal_count=1486 782 534 704 585 493 470 92 248 33 119 22 215 64
is_linear=0
shrinkage=0.05


Tree=2
num_leaves=15
num_cat=0
split_feature=21 19 6 18 3 3 0 3 18 6 7 7 2 7
split_gain=53.6972 51.8608 27.2015 24.3659 15.2791 15.628 10.5359 9.87776 8.69256 7.30384 6.73082 6.51705 4.43057 4.31246
threshold=1.0000000180025095e-35 1.5000000000000002 0.89875000000000005 1.5000000000000002 0.66415000000000013 0.86940000000000006 4.5000000000000009 0.88695000000000002 11.500000000000002 0.96790000000000009 0.99555000000000016 0.99965000000000015 3.5000000000000004 0.99745000000000006
decision_type=2 2 2 2 2 2 2 2 2 2 2 2 2 2
left_child=1 7 6 9 11 -6 -3 10 -4 -2 -1 -5 -9 -11
right_child=3 2 8 4 5 -7 -8 12 -10 13 -12 -13 -14 -15
leaf_value=-0.070034570699194096 -0.083823524659449825 0.054354606218678173 0 -0.03488423096685931 0.0063803396638902419 -0.023665310395728473 0.010140500537891416 -0.038042572528226591 0.06240414609588521 -0.046031669448049116 -0.0027512453409636638 0.036373809662263105 0.062856125051768214 0.027244994249983407
leaf_weight=18.763263177126653 14.652892395853998 14.267836004495619 6.1297625303268424 60.763724505901337 133.26781872659922 62.812198013067245 128.95848333835602 0.79746544361114535 50.907277047634125 3.686782479286193 4.8745256923139086 2.5301225185394278 2.1133193969726554 2.5562879145145416
leaf_count=59 97 98 33 151 274 155 330 7 215 18 28 5 12 4
internal_value=0 0.0180437 0.0267984 -0.0146143 -0.0102723 -0.00329034 0.014926 -0.0463894 0.0557542 -0.0653513 -0.0570373 -0.0314365 0.0312753 -0.0157184
internal_weight=507.082 226.812 200.263 280.27 259.374 196.08 143.226 26.5486 57.037 20.896 23.6378 63.2938 2.91078 6.24307
internal_count=1486 782 676 704 585 429 428 106 248 119 87 156 19 22
is_linear=0
shrinkage=0.05


Tree=3
num_leaves=13
num_cat=0
split_feature=18 0 20 6 7 20 7 10 7 10 10 20
split_gain=40.1252 41.7976 15.2635 14.369 14.0422 12.5626 10.1488 8.41543 4.56038 2.01081 3.29505 1.91025
threshold=1.5000000000000002 9.5000000000000018 -0.033449999999999994 0.96790000000000009 0.9699000000000001 -0.012599999999999998 0.99865000000000015 0.80500000000000016 0.98010000000000008 0.65500000000000014 0.64500000000000013 -0.029249999999999995
decision_type=2 2 2 2 2 2 2 2 2 2 2 2
left_child=3 2 7 9 -4 6 -5 -2 -3 10 -1 -10
right_child=1 8 4 5 -6 -7 -8 -9 11 -11 -12 -13
leaf_value=-0.055160783152970107 -0.025632450028258015 -0.035893595563610874 0.082456393918225346 -0.066756505019127318 0.0044765570215641428 0.056245036442257146 0.05480308848841229 0.0010831061103975471 0.022891203228982911 -0.083276928119302443 0.031473798131700627 0.065068220206450686
leaf_weight=1.6207065507769614 73.424934893846512 0.60277825593948264 4.9225494861602774 6.8111774697899801 257.34183038771152 3.9788017570972434 1.3402702808380125 48.101889848709106 4.9787928462028495 17.933014422655106 0.96548481285572041 28.013961628079414
leaf_count=17 184 2 10 32 838 20 1 121 18 137 3 103
internal_value=0 0.00422466 -0.000505929 -0.0525281 0.00626683 -0.00785667 -0.0424187 -0.0150947 0.0568634 -0.0771117 -0.0216661 0.0597112
internal_weight=450.036 417.387 383.791 32.6495 262.264 12.1302 8.15145 121.527 33.5955 20.5192 2.58619 32.9928
internal_count=1486 1276 1153 210 848 53 33 305 123 157 20 121
is_linear=0
shrinkage=0.05


Tree=4
num_leaves=15
num_cat=0
split_feature=21 6 18 19 5 5 20 18 20 3 5 6 11 11
split_gain=30.1352 25.4282 13.4399 12.561 10.8083 16.4831 8.63708 7.71029 8.51122 7.37773 5.16998 4.20072 3.39256 2.07146
threshold=1.0000000180025095e-35 0.89875000000000005 1.5000000000000002 1.5000000000000002 0.4179000000000001 0.44815000000000005 0.12785000000000005 11.500000000000002 0.031750000000000007 0.61775000000000013 0.72855000000000014 0.96790000000000009 0.069600000000000009 0.025950000000000004
decision_type=2 2 2 2 2 2 2 2 2 2 2 2 2 2
left_child=1 3 11 10 9 -6 -5 8 -3 -4 -1 -2 -9 -13
right_child=2 7 4 6 5 -7 -8 12 -10 -11 -12 13 -14 -15
leaf_value=-0.037053897189259111 -0.07451395220963658 -0.051001361472440693 0.038454677982561747 0.0057369142463442593 0.035106524273586008 -0.0093275800802480532 0.044215637350464063 0.059859683312501272 0.05871021386176474 -0.040867902963694518 0.046352674624209465 0.019550810076953546 -0.017652229396662857 -0.035942152302335426
leaf_weight=19.413037354126576 9.7331073153763992 3.254835531115531 2.3780000805854788 107.9300240278244 22.82208126783371 166.70989076793194 16.046423614025116 35.053114682435989 2.0182761549949646 31.39922884106636 1.14597788453102 1.9166472852230061 0.95013540983199973 3.0533431023359299
leaf_count=102 97 26 10 386 44 449 42 207 7 82 4 5 8 17
internal_value=0 0.0150453 -0.0117594 0.00499349 -0.00854716 -0.00379473 0.0110712 0.0491742 -0.00554729 -0.0341945 -0.0302384 -0.0565767 0.0572572 -0.0140139
internal_weight=423.824 185.812 238.012 144.535 223.309 189.532 123.976 41.2764 5.27311 33.7772 20.559 14.7031 36.0033 4.96999
internal_count=1486 782 704 534 585 493 428 248 33 92 106 119 215 22
is_linear=0
shrinkage=0.05


Tree=5
num_leaves=13
num_cat=0
split_feature=18 0 21 0 18 5 7 14 9 7 20 11
split_gain=25.7577 23.6476 11.8796 13.9905 13.6875 5.81609 4.59506 4.49608 5.57893 4.09014 1.39339 1.21496
threshold=1.5000000000000002 9.5000000000000018 1.0000000180025095e-35 5.5000000000000009 17.000000000000004 0.87755000000000016 0.98010000000000008 0.62225000000000008 0.56500000000000006 0.9970500000000001 -0.029249999999999995 0.041450000000000008
decision_type=2 2 2 2 2 2 2 2 2 2 2 2
left_child=5 2 3 -2 -4 7 -3 8 -1 11 -8 -7
right_child=1 6 4 -5 -6 9 10 -9 -10 -11 -12 -13
leaf_value=-0.05984576699590486 0.03808123827644546 -0.038677350794421278 -0.0043089623694653112 0.0015892298936452068 -0.056957195880811398 -0.049770876054150918 0.018248799912805647 -0.072009554781393259 0.030208548833222465 0.051394328094815769 0.05885010277595687 0.0075931219145425194
leaf_weight=2.2327636629343095 34.926410466432571 0.68173390626907604 190.12792521715164 99.208806425333023 12.254431441426275 1.562199875712394 4.0451231300830903 15.369863858446477 2.6914966404438019 1.6099620461463926 20.393627390265461 0.87095338106155384
leaf_count=24 262 2 545 311 35 10 18 154 9 9 103 4
internal_value=0 0.00340537 -0.000136648 0.0113396 -0.00778582 -0.0487393 0.0492349 -0.059206 -0.0129894 0.00412854 0.0533078 -0.0315502
internal_weight=385.975 361.638 336.518 134.135 202.382 24.3372 25.1205 20.2941 4.92426 4.04312 24.4388 2.43315
internal_count=1486 1276 1153 573 580 210 123 187 33 23 121 14
is_linear=0
shrinkage=0.05


Tree=6
num_leaves=13
num_cat=0
split_feature=18 0 7 7 20 7 6 20 3 5 11 20
split_gain=17.2037 17.2691 8.22975 11.1312 9.43245 6.05494 5.39881 6.99673 4.71963 5.32837 3.80397 1.18087
threshold=1.5000000000000002 9.5000000000000018 0.9699000000000001 0.99185000000000012 -0.093799999999999981 0.98010000000000008 0.96790000000000009 -0.012599999999999998 0.62290000000000012 0.48555000000000004 0.021750000000000002 -0.029249999999999995
decision_type=2 2 2 2 2 2 2 2 2 2 2 2
left_child=6 2 4 -4 -2 -3 8 10 9 -1 -8 -7
right_child=1 5 3 -5 -6 11 7 -9 -10 -11 -12 -13
leaf_value=-0.050633915883396663 -0.028771593496315986 -0.046287736876738574 -0.012705350025322415 0.0061547995576183255 0.080806345389438788 0.016658230421928984 0.03473369445267091 0.047242851521786727 -0.073146193324806305 0.054272282061958214 -0.0553131995496879 0.055676294913091978
leaf_weight=1.5571145266294488 2.169251561164856 0.93804574012756603 130.70084689557552 191.48530253767967 5.2519283890724173 3.8083582967519787 0.68436688184738148 2.7428345680236816 11.191488506272433 1.296741247177124 4.5752671286463737 17.838224984705448
leaf_count=23 5 2 432 703 13 18 1 20 133 1 32 103
internal_value=0 0.00273123 -0.000210479 -0.00149634 0.0485693 0.044064 -0.0418542 -0.00700468 -0.0595924 0 -0.0391208 0.0500712
internal_weight=374.24 352.192 329.607 322.186 7.42118 22.5846 22.0478 8.00247 14.0453 2.85386 5.25963 21.6466
internal_count=1486 1276 1153 1135 18 123 210 53 157 24 33 121
is_linear=0
shrinkage=0.05


Tree=7
num_leaves=15
num_cat=0
split_feature=6 18 20 3 20 3 7 18 3 20 11 18 10 10
split_gain=16.3344 16.8843 11.7762 7.62773 6.11266 8.48009 5.02578 4.50821 6.10535 3.98468 3.11634 2.29538 1.28752 1.63385
threshold=0.89875000000000005 1.5000000000000002 0.13205000000000003 0.87070000000000014 -0.013099999999999999 0.66365000000000018 0.99035000000000006 11.500000000000002 0.72550000000000014 0.17850000000000002 0.021750000000000002 17.000000000000004 0.65500000000000014 0.64500000000000013
decision_type=2 2 2 2 2 2 2 2 2 2 2 2 2 2
left_child=1 12 3 -3 7 11 -7 10 -9 -4 -2 -6 13 -1
right_child=4 2 9 -5 5 6 -8 8 -10 -11 -12 -13 -14 -15
leaf_value=-0.040953058824770086 0.03121783015583739 -0.00058995470473826206 0.063606759751285102 -0.020786656654554047 -0.049797744609065719 -0.0026329101226010201 0.043457603194482386 0.035119932795547891 -0.0069747462423180003 0.0013924059891907738 -0.053052372618333427 0.025456269913368707 -0.069749021666087874 0.024768459537926696
leaf_weight=1.0177717804908741 0.60841143131256004 189.47045999765396 7.4670190513133985 61.331576481461525 3.1945794373750682 6.6019087731838217 38.063539739698172 13.551421269774435 20.119628615677357 4.0033106803894043 4.0731679275631905 0.55840826034545887 9.7146409340202791 0.78798501938581456
leaf_count=17 1 618 31 215 34 46 207 52 80 13 33 2 134 3
internal_value=0 -0.00599794 -0.00325711 -0.00561169 0.0187783 0.0304215 0.0366271 0.00355271 0.010347 0.0441469 -0.0376537 -0.0345487 -0.0627523 -0.0118857
internal_weight=360.564 273.793 262.272 250.802 86.7711 48.4184 44.6654 38.3526 33.671 11.4703 4.68158 3.75299 11.5204 1.80576
internal_count=1486 1031 877 833 455 289 253 166 132 44 34 36 154 20
is_linear=0
shrinkage=0.05


Tree=8
num_leaves=15
num_cat=0
split_feature=6 18 20 21 7 11 3 3 9 11 20 5 10 10
split_gain=17.2162 13.821 9.01302 8.98327 6.44996 4.53801 6.2661 4.09012 3.39033 3.79044 2.15634 1.62839 0.943521 1.15953
threshold=0.89875000000000005 1.5000000000000002 0.12785000000000005 1.0000000180025095e-35 0.9699000000000001 0.032750000000000008 0.88945000000000018 0.8247000000000001 0.59500000000000008 0.082150000000000015 -0.0073999999999999995 0.6251000000000001 0.65500000000000014 0.64500000000000013
decision_type=2 2 2 2 2 2 2 2 2 2 2 2 2 2
left_child=1 12 4 8 -3 10 -7 -4 11 -10 -5 -2 13 -1
right_child=3 2 7 5 -6 6 -8 -9 9 -11 -12 -13 -14 -15
leaf_value=-0.036952922252607406 0.016941683170264298 0.046337191237121676 0.070897159528994849 0.0073350297299332352 -0.0072983805055053296 0.0057985686349864077 -0.047445407957431629 0.012277938843809769 0.051377357068570155 -0.034218624120542926 0.037273135053250965 -0.0409928726608422 -0.067069021267258694 0.019827888025570114
leaf_weight=0.89206901565194019 2.2719503492116959 4.7270785272121421 4.1668815314769736 12.514401167631151 245.25715788453817 30.537937041372061 5.6878926157951346 8.9599893689155561 24.356871027499441 0.62900769710540672 12.953140035271643 0.90893618389964093 8.6157045811414701 0.72245179116725922
leaf_count=17 15 15 22 45 811 112 15 29 214 2 35 17 134 3
internal_value=0 -0.00624761 -0.00389342 0.0188639 -0.00608366 0.00781216 -0.00347702 0.0349409 0.0418012 0.0477962 0.0235838 -0.00426236 -0.0606115 -0.0117669
internal_weight=363.201 273.341 263.111 89.8601 249.984 61.6934 36.2258 13.1269 28.1668 24.9859 25.4675 3.18089 10.2302 1.61452
internal_count=1486 1031 877 455 826 207 127 51 248 216 80 32 154 20
is_linear=0
shrinkage=0.05


Tree=9
num_leaves=15
num_cat=0
split_feature=6 18 3 6 18 21 7 7 18 7 10 7 10 10
split_gain=21.0685 11.4426 9.15473 11.1834 10.8336 5.05005 3.33457 7.49979 3.24639 2.53081 1.30663 1.08947 0.589312 0.853027
threshold=0.89875000000000005 1.5000000000000002 0.87070000000000014 0.81785000000000008 17.000000000000004 1.0000000180025095e-35 0.99035000000000006 0.98575000000000013 11.500000000000002 0.99225000000000008 0.91000000000000014 0.99065000000000014 0.65500000000000014 0.64500000000000013
decision_type=2 2 2 2 2 2 2 2 2 2 2 2 2 2
left_child=1 12 4 -4 -3 8 7 -7 10 -8 -2 -10 13 -1
right_child=5 2 3 -5 -6 6 9 -9 11 -11 -12 -13 -14 -15
leaf_value=-0.034617792863290829 -0.029013700993462496 0.0071745968172848415 -0.029211417430395171 0.02573202522244121 -0.02017108972971688 0.049134214389774354 0.053886039383941813 -0.037213058285921349 0.018511949160789298 0.013973878567048431 0.019980180803869534 0.051901829307238224 -0.064633491256787676 0.015028040107878901
leaf_weight=0.82275014184415141 1.6807322502136257 149.37062915414572 57.337522462010384 10.110768869519232 46.698085278272629 2.5688193514943105 3.653409779071807 7.5531075447797775 5.1636544391512897 51.159940840676427 1.7222413048148155 17.542376726865768 7.7485126601532102 0.68003037571907043
leaf_count=17 22 528 192 27 130 10 12 31 51 154 11 164 134 3
internal_value=0 -0.00695768 -0.00490136 -0.0206465 0.000566941 0.0206943 0.0127655 -0.0124022 0.0390312 0.0176415 -0.00417606 0.0456206 -0.058851 -0.0131262
internal_weight=363.813 272.768 263.517 67.4483 196.069 91.0443 64.9353 10.1219 26.109 54.8134 3.40297 22.706 9.25129 1.50278
internal_count=1486 1031 877 219 658 455 207 41 248 166 33 215 154 20
is_linear=0
shrinkage=0.05


Tree=10
num_leaves=15
num_cat=0
split_feature=6 18 20 3 21 5 5 9 20 9 7 5 3 3
split_gain=15.2362 10.4103 8.04947 5.93311 5.09144 4.08954 9.56673 8.89572 3.34601 2.91623 1.79215 1.28108 0.386664 0.958159
threshold=0.89875000000000005 1.5000000000000002 0.13205000000000003 0.87070000000000014 1.0000000180025095e-35 0.71715000000000007 0.67305000000000004 0.79000000000000015 0.17850000000000002 0.59500000000000008 0.98145000000000016 0.6251000000000001 0.62290000000000012 0.61910000000000009
decision_type=2 2 2 2 2 2 2 2 2 2 2 2 2 2
left_child=1 12 3 -3 9 6 -6 -7 -4 11 -11 -2 13 -1
right_child=4 2 8 -5 5 7 -8 -9 -10 10 -12 -13 -14 -15
leaf_value=-0.036446062229814523 0.013361349415440083 -0.0011324399610022329 0.058364228500484616 -0.018175786747720194 -0.0060002082731348411 -0.046201510922999539 0.056791532069710743 0.011265651546455598 0 -0.013955962858461318 0.045919636940692954 -0.038950551787276105 -0.062606798002768957 0.015941569432536187
leaf_weight=0.93207462318241396 2.1271426230669053 192.4246533587575 6.0995630472898466 68.947072967886925 11.133384972810747 7.1922632902860633 11.577502906322477 36.750660102814436 3.9667400568723679 0.76151549816131847 20.713393289595842 0.84843607246875752 7.0580817838199437 0.65222613513469696
leaf_count=20 15 618 31 215 43 27 25 112 13 7 209 17 130 4
internal_value=0 -0.00578324 -0.0039348 -0.00569949 0.0176491 0.0100997 0.0268439 0.000929865 0.0378082 0.0368273 0.0430474 -0.00634241 -0.0568913 -0.0151211
internal_weight=371.185 280.08 271.438 261.372 91.1043 66.6538 22.7109 43.9429 10.0663 24.4505 21.4749 2.97558 8.64238 1.5843
internal_count=1486 1031 877 833 455 207 68 139 44 248 216 32 154 24
is_linear=0
shrinkage=0.05


Tree=11
num_leaves=15
num_cat=0
split_feature=6 18 20 21 5 20 5 5 20 18 20 20 10 10
split_gain=9.24417 9.6513 5.73181 5.63703 4.72207 4.36609 6.4411 4.92455 3.08485 3.46202 2.77784 0.550204 0.37426 0.754593
threshold=0.89875000000000005 1.5000000000000002 0.13205000000000003 1.0000000180025095e-35 0.7511500000000001 0.0015500000000000002 0.7199000000000001 0.67800000000000005 0.0084500000000000009 11.500000000000002 0.17850000000000002 0.10015000000000002 0.65500000000000014 0.64500000000000013
decision_type=2 2 2 2 2 2 2 2 2 2 2 2 2 2
left_child=1 12 4 8 -3 6 -5 -7 9 -2 -4 -10 13 -1
right_child=3 2 10 5 -6 7 -8 -9 11 -11 -12 -13 -14 -15
leaf_value=-0.032956110993945568 -0.03550333291950053 -0.0053261758230145088 0.054731822306974001 0.038954927382850432 0.037087347973063275 -0.065705859142933087 0.00016084891542677898 -0.0011505194407252426 0.05643928209140469 0.026638479760736855 0 0.019293725281094874 -0.06073712144093333 0.014469603326192963
leaf_weight=0.79225423932075301 2.024885833263399 250.72532892227173 5.2482026517391187 16.015173114836216 5.7237858176231375 2.6953975707292583 29.55431491881609 15.772361047565935 10.096554525196551 7.6877622827887535 3.9333659261465073 3.1526996195316306 6.6573493480682373 0.60589358955621719
leaf_count=17 24 819 31 52 14 10 98 47 82 120 13 22 134 3
internal_value=0 -0.00451814 -0.00275721 0.0141032 -0.00421973 0.00616006 0.0144459 -0.0137204 0.0348653 0.0111117 0.0340035 0.0499256 -0.0553161 -0.0128554
internal_weight=360.685 273.686 265.631 86.9991 256.449 64.0372 45.5695 18.4678 22.9619 9.71265 9.18157 13.2493 8.0555 1.39815
internal_count=1486 1031 877 455 833 207 150 57 248 144 44 104 154 20
is_linear=0
shrinkage=0.05


Tree=12
num_leaves=13
num_cat=0
split_feature=3 3 18 5 18 20 18 21 3 20 20 9
split_gain=6.65604 7.25964 6.37534 6.95797 3.91695 3.15615 2.51202 2.00832 1.94518 0.919926 0.842497 0.606222
threshold=0.91305000000000003 0.90665000000000007 1.5000000000000002 0.74320000000000019 15.000000000000002 -0.012599999999999998 13.500000000000002 1.0000000180025095e-35 0.94170000000000009 0.040350000000000004 0.048900000000000006 0.8650000000000001
decision_type=2 2 2 2 2 2 2 2 2 2 2 2
left_child=1 2 5 -4 10 -1 11 8 -6 -9 -2 -3
right_child=4 6 3 -5 7 -7 -8 9 -10 -11 -12 -13
leaf_value=-0.047657912789380738 -0.043997166960492939 -0.023912953630378639 -0.0017623917068555978 0.01973186021780457 0.067966430617703397 0.0032374408258305162 -0.067203570990303399 0.0280549294211291 0.00088020574092701614 -0.0054345636280679803 0.010269509552082811 0.010269182990533718
leaf_weight=9.303715921007095 1.1547249360010017 1.4823956191539756 277.96458236500621 42.49664906039834 5.8336606621742231 3.9009620212018481 4.5317875705659389 4.0286802873015404 1.4961005598306654 2.6353381127119064 0.40911471843719471 1.6322328150272369
leaf_count=135 16 9 955 219 35 58 16 13 11 9 5 5
internal_value=0 -0.0014976 -0.000309449 0.00112494 0.0309615 -0.0331009 -0.0467346 0.0395484 0.0566231 0.0151778 -0.0293821 -0.00664228
internal_weight=356.87 341.312 333.666 320.461 15.5576 13.2047 7.64642 13.9938 7.32976 6.66402 1.56384 3.11463
internal_count=1486 1397 1367 1174 89 193 30 68 46 22 21 14
is_linear=0
shrinkage=0.05


Tree=13
num_leaves=15
num_cat=0
split_feature=6 18 11 11 5 21 20 11 20 20 20 11 10 10
split_gain=8.26025 7.27887 5.51379 16.6496 11.1126 4.20763 6.22552 7.13643 7.05993 2.4951 2.19277 1.87774 0.777157 0.74456
threshold=0.89875000000000005 1.5000000000000002 0.058400000000000007 0.051950000000000003 0.38200000000000006 1.0000000180025095e-35 -1.0000000180025095e-35 0.033050000000000003 -0.0065999999999999991 -0.029249999999999995 -0.056599999999999991 0.082150000000000015 0.65500000000000014 0.64500000000000013
decision_type=2 2 2 2 2 2 2 2 2 2 2 2 2 2
left_child=1 12 3 -3 -4 9 8 -8 -7 10 -2 -11 13 -1
right_child=5 2 4 -5 -6 6 7 -9 -10 11 -12 -13 -14 -15
leaf_value=-0.028799045489255409 0.031478923628274313 -0.00036302977260025565 -0.039630542573622876 -0.039192532201128463 0.023242396284819344 0.0097233574127461239 0.013927715805542177 -0.041743772263285205 0.071656361855232692 0.044812135484221388 -0.024220866425784762 -0.022878404741965046 -0.057878498380229716 0.018220409297863182
leaf_weight=0.68547642603516468 2.248358154669404 185.09650877118111 7.5099911987781516 31.507067441940308 39.606623306870461 38.042531751096249 10.352683313190939 10.767730988562105 4.3776908144354811 15.661245811730623 2.8614602908492115 0.40398505330085832 5.8480469989590347 0.63873035460710526
leaf_count=17 21 631 24 92 130 135 31 31 10 205 20 2 134 3
internal_value=0 -0.00426672 -0.00279561 -0.00618828 0.0125017 0.0135342 0.00676872 -0.014833 0.017733 0.0323892 0.000609986 0.0415761 -0.050786 -0.00588664
internal_weight=355.608 270.892 263.72 216.604 47.1166 84.7157 63.5406 21.1204 42.4202 21.175 5.10982 16.0652 7.17225 1.32421
internal_count=1486 1031 877 723 154 455 207 62 145 248 41 207 154 20
is_linear=0
shrinkage=0.05


Tree=14
num_leaves=13
num_cat=0
split_feature=6 1 11 11 20 7 7 7 20 3 10 10
split_gain=10.3973 5.83952 4.83705 8.44514 3.19204 4.19025 6.52652 3.78338 3.35105 1.52083 0.677047 0.67792
threshold=0.89875000000000005 4.5000000000000009 0.0082500000000000021 0.021750000000000002 0.041600000000000005 0.98865000000000014 0.99015000000000009 0.99035000000000006 -0.10634999999999999 0.81935000000000013 0.65500000000000014 0.64500000000000013
decision_type=2 2 2 2 2 2 2 2 2 2 2 2
left_child=1 10 -3 -4 5 8 -7 9 -2 -6 11 -1
right_child=4 2 3 -5 7 6 -8 -9 -10 -11 -12 -13
leaf_value=-0.027223295348335449 -0.017664762155176063 0.041559049855612887 -0.044159115806175327 -0.0024352614632624533 0.014910263733773127 -0.043605505487955408 0.011473221772211425 0.050555741082314413 0.063442389098622307 -0.04268659410878748 -0.05576766044389652 0.018289637520597837
leaf_weight=0.6530773527920235 1.0415680408477781 4.8062023222446433 11.802359528839586 243.5481297057122 1.7087599039077752 4.9041823744773856 58.466369956731796 10.234899163246153 4.8654206432402125 0.98694391548633564 5.161705139093101 0.5733378641307354
leaf_count=16 7 9 51 824 12 30 299 63 40 4 128 3
internal_value=0 -0.0048008 -0.00352118 -0.00454799 0.0154363 0.0107555 0.00652186 0.0375835 0.0479301 -0.0106685 -0.0487066 -0.00504238
internal_weight=348.753 266.545 260.157 255.35 82.2081 69.2775 63.3706 12.9306 5.90699 2.6957 6.38812 1.22642
internal_count=1486 1031 884 875 455 376 329 79 47 16 147 19
is_linear=0
shrinkage=0.05


Tree=15
num_leaves=13
num_cat=0
split_feature=19 10 20 17 10 11 20 14 7 7 5 9
split_gain=6.59556 11.734 10.448 12.5761 8.05897 7.7216 6.52087 6.44299 4.94772 4.74161 4.06019 2.54804
threshold=1.5000000000000002 0.65500000000000014 -0.021799999999999996 0.38180000000000008 0.68500000000000016 0.0082500000000000021 -0.054299999999999994 0.68945000000000001 0.99495000000000011 0.97755000000000014 0.61385000000000012 0.6150000000000001
decision_type=2 2 2 2 2 2 2 2 2 2 2 2
left_child=2 10 3 8 11 -4 -6 -5 -1 -7 -2 -3
right_child=1 4 5 7 6 9 -8 -9 -10 -11 -12 -13
leaf_value=-0.021093021800421406 -0.077345051230103254 0.057203712827828435 0.056261060411387315 -0.01789294141930254 -0.013095439068222945 0.030977439701113659 0.0072353983601086387 0.081358808757959367 0.028204952638643602 -0.040495749037943951 0.010126441685670624 0.001159485587601203
leaf_weight=21.032558220438663 4.8976156786084166 8.5172453960403782 1.4840531051158894 1.632609624415635 47.700712172314525 1.6915169656276692 204.92336619645357 5.8738637119531631 5.6171400574967256 34.57271409407258 1.3140013962984083 2.8650363087654105
leaf_count=84 26 40 2 8 195 13 873 14 39 169 7 16
internal_value=0 0.00358887 -0.0133512 0.00651513 0.00530585 -0.0311604 0.0033403 0.0596186 -0.00987704 -0.0362859 -0.0593097 0.0447335
internal_weight=342.122 270.218 71.9045 34.1562 264.006 37.7483 252.624 7.50647 26.6497 36.2642 6.21162 11.3823
internal_count=1486 1157 329 145 1124 184 1068 22 123 182 33 56
is_linear=0
shrinkage=0.05


Tree=16
num_leaves=15
num_cat=0
split_feature=6 18 7 18 16 7 3 3 20 20 20 3 3 3
split_gain=6.03525 6.25291 4.77425 16.9326 11.2944 2.59547 5.43086 6.12395 4.06001 1.30594 8.9748 1.51891 0.251532 0.567514
threshold=0.89875000000000005 1.5000000000000002 0.99365000000000014 17.000000000000004 1.0000000180025095e-35 0.99555000000000016 0.8841500000000001 0.68775000000000008 -0.020649999999999998 -0.039749999999999994 -0.015849999999999996 0.74890000000000012 0.62290000000000012 0.61910000000000009
decision_type=2 2 2 2 2 2 2 2 2 2 2 2 2 2
left_child=1 12 3 -3 -4 6 7 -2 -8 11 -11 -7 13 -1
right_child=5 2 4 -5 -6 9 8 -9 -10 10 -12 -13 -14 -15
leaf_value=-0.028824239885649777 -0.023402065281304021 0.0023901010426784102 -0.040128432918948347 -0.034619327110376068 0.013692273238185983 0.04926664898437659 0.01672214244700599 0.022407963325183348 -0.057076644067062733 -0.045839921400530302 0.028302914167338756 -0.0018759615799198129 -0.05486729353427168 0.012755465373801941
leaf_weight=0.73600405734032281 8.6472461298108083 112.54643765836954 10.148871295154093 41.439409956336021 76.100133903324604 6.353770673274993 2.0908553451299667 29.04977622628212 4.6619206964969626 3.9828378409147289 22.023589827120304 1.4897127747535703 5.0550302159972489 0.55629120767116547
leaf_count=20 60 396 39 118 324 25 7 175 24 14 140 10 130 4
internal_value=0 -0.00384502 -0.00242314 -0.00769642 0.00691457 0.0120046 0.00376484 0.0114373 -0.0343719 0.0222625 0.015486 0.039874 -0.0493256 -0.010988
internal_weight=324.882 246.582 240.235 153.986 86.249 78.2997 44.4498 37.697 6.75278 33.8499 26.0064 7.84348 6.34733 1.2923
internal_count=1486 1031 877 514 363 455 266 235 31 189 154 35 154 24
is_linear=0
shrinkage=0.05


Tree=17
num_leaves=14
num_cat=0
split_feature=18 20 20 17 9 9 3 7 20 20 3 9 20
split_gain=4.12539 4.76109 12.4479 8.96789 11.0963 7.28563 5.57872 4.73019 2.42405 2.05531 1.78922 2.15527 0.62505
threshold=1.5000000000000002 -0.0029999999999999996 -0.0081499999999999993 0.38180000000000008 0.62500000000000011 0.63500000000000012 0.90955000000000019 0.99815000000000009 -0.012599999999999998 -0.0029999999999999996 0.62225000000000008 0.56500000000000006 0.031750000000000007
decision_type=2 2 2 2 2 2 2 2 2 2 2 2 2
left_child=8 2 7 4 -3 -5 -4 -2 10 -10 11 -1 -11
right_child=1 3 6 5 -6 -7 -8 -9 9 12 -12 -13 -14
leaf_value=-0.04119046420450391 0.0054114087222327297 -0.034456484369966497 0.073636699241173983 0.027252110216381548 0.0063248324391779569 -0.045058825711681127 -0.014549686254813893 -0.036191777438058396 0.036578826156932163 -0.038231853374837879 -0.057156983491213634 0.025368556695417058 0
leaf_weight=1.2392146205529555 137.64956500008702 18.654812328517437 8.4558008387684804 3.4124822467565563 109.1683167424053 19.332228243350983 1.7394928783178318 6.1721362695097914 1.5981711968779562 1.2172488700598472 5.2092724917456508 1.6355386041104791 1.6513228137046096
leaf_count=24 467 104 29 22 551 73 4 26 12 33 104 8 29
internal_value=0 0.0011971 0.00736792 -0.00508905 0.000113026 -0.0333083 0.0581883 0.0033539 -0.0269959 0.00173081 -0.0418623 -0.00525826 -0.0208284
internal_weight=317.136 304.585 154.017 150.568 127.823 22.7447 10.1953 143.822 12.5508 4.46674 8.08403 2.87475 2.86857
internal_count=1486 1276 526 750 655 95 33 493 210 74 136 32 62
is_linear=0
shrinkage=0.05


Tree=18
num_leaves=16
num_cat=0
split_feature=17 11 7 3 7 5 20 5 20 7 18 7 20 20 6
split_gain=5.31139 6.17139 7.8568 7.65862 13.773 6.08536 9.15155 7.2169 5.27716 5.08216 9.20752 6.42943 4.49039 4.34123 1.08926
threshold=0.22500000000000003 0.059050000000000012 0.98735000000000006 0.83875000000000011 0.97320000000000018 0.58860000000000012 0.028400000000000005 0.55500000000000005 0.024800000000000006 0.99255000000000015 17.000000000000004 0.98865000000000014 0.12925000000000003 0.051750000000000011 0.96790000000000009
decision_type=2 2 2 2 2 2 2 2 2 2 2 2 2 2 2
left_child=1 2 14 4 -3 6 7 -2 -5 11 -11 -7 -8 -4 -1
right_child=5 3 13 8 -6 9 12 -9 -10 10 -12 -13 -14 -15 -16
leaf_value=-0.072556232968132447 0.0022260131418181022 -0.029817573149167942 -0.00017497402160151457 0.027008319301551231 0.059693379299669183 0.050278057599473638 -0.045858327657942809 -0.057484565400580612 -0.066346921998168121 -0.049820223691267325 0.060421909954174263 -0.044380908223358148 0.0073995993649320791 0.02164166300015552 -0.0066208991916035763
leaf_weight=2.9742963388562194 55.103279489092529 4.8970413245260778 154.73436207417399 1.8207857236266125 16.832573778927326 1.6603585956618179 23.575914315879348 4.5548404157161704 2.5107979029417038 1.5283511430025072 8.1669964492321014 4.5745729953050613 4.2285702973604193 25.652949441224337 1.2104912400245664
leaf_count=11 271 20 762 13 81 11 62 28 6 18 31 20 23 120 9
internal_value=0 0.00455257 0.00124787 0.0268615 0.0388766 -0.00922931 -0.014444 -0.00312293 -0.0284617 0.0182677 0.0395428 -0.015017 -0.0376095 0.00300222 -0.0594037
internal_weight=314.026 210.633 184.572 26.0612 21.7296 103.393 87.4626 59.6581 4.33158 15.9303 9.69535 6.23493 27.8045 180.387 4.18479
internal_count=1486 1022 902 120 101 464 384 299 19 80 49 31 85 882 20
is_linear=0
shrinkage=0.05


Tree=19
num_leaves=13
num_cat=0
split_feature=5 5 5 3 5 20 20 9 7 7 20 20
split_gain=5.31191 6.29184 8.76497 7.48281 5.76525 8.47376 6.10179 4.71991 4.25594 1.63957 2.68282 2.58078
threshold=0.4179000000000001 0.44815000000000005 0.47185000000000005 0.74890000000000012 0.40680000000000005 -0.035299999999999991 -0.18414999999999995 0.58500000000000008 0.98575000000000013 0.97865000000000013 -0.033099999999999997 -0.064599999999999977
decision_type=2 2 2 2 2 2 2 2 2 2 2 2
left_child=4 9 3 -3 5 6 -1 -7 -4 11 -11 -2
right_child=1 2 8 -5 -6 7 -8 -9 -10 10 -12 -13
leaf_value=0.046920968901739121 0.035838486287283693 0.003035899355747117 0.022366944684987691 -0.059796603309099222 -0.067044977916914647 0.050709918718107073 -0.050570962553888425 -0.0036063140755581351 0.00044665724983230067 0.0075480841946290213 0.048349322704905176 -0.04690104147322207
leaf_weight=0.99624818563461204 0.74340999126434315 8.0110523905605096 23.914201103150845 9.8165479302406293 4.2405065223574629 4.7392407059669521 11.326108232140543 12.336647298187016 204.3944804915227 7.3010015487670943 10.674394115805622 1.0481332093477274
leaf_count=3 3 43 135 23 18 23 64 66 1035 23 41 9
internal_value=0 0.0023907 0.000139839 -0.0326349 -0.0184212 -0.0092682 -0.0393832 0.0131634 0.00285203 0.0288212 0.0333119 -0.0102375
internal_weight=299.542 265.903 246.136 17.8276 33.6388 29.3982 12.3224 17.0759 228.309 19.7669 17.9754 1.79154
internal_count=1486 1312 1236 66 174 156 67 89 1170 76 64 12
is_linear=0
shrinkage=0.05


Tree=20
num_leaves=13
num_cat=0
split_feature=17 11 7 7 3 7 10 3 7 21 0 7
split_gain=3.85964 3.99011 7.05898 4.9399 8.74018 3.87044 3.59621 3.57287 2.64018 4.27516 3.36891 1.98651
threshold=0.22500000000000003 0.059050000000000012 0.98785000000000012 0.97320000000000018 0.83875000000000011 0.98865000000000014 0.93500000000000016 0.90955000000000019 0.98925000000000007 1.0000000180025095e-35 4.5000000000000009 0.96515000000000006
decision_type=2 2 2 2 2 2 2 2 2 2 2 2
left_child=1 2 6 11 -5 -4 -1 8 10 -10 -2 -3
right_child=7 3 5 4 -6 -7 -8 -9 9 -11 -12 -13
leaf_value=-0.011739518088559575 0.015743556450168877 0.012285980472488585 0.04736508135254059 0.052229701347228152 -0.031205961805045597 0.002661083189578535 -0.071659058703687564 0.048978791780049012 0.0063883905627807325 -0.0195356226068178 -0.028437810744659842 -0.04238697306834828
leaf_weight=7.3773769550025445 4.3148681744933155 2.2900142222642925 4.0192767269909373 14.057457938790323 3.167139768600463 162.73442258266732 3.4953670874238014 1.6602503769099701 39.395220749080181 25.134772669989616 25.975423984229565 2.5187083408236504
leaf_count=38 39 12 17 81 15 831 16 16 184 127 98 12
internal_value=0 0.00396517 0.0013882 0.0235607 0.0357433 0.00404432 -0.0358367 -0.00816214 -0.00971554 -0.00377688 -0.0216824 -0.017857
internal_weight=296.14 199.66 177.626 22.0333 17.2246 166.754 10.8727 96.4805 94.8203 64.53 30.2903 4.80872
internal_count=1486 1022 902 120 96 848 54 464 448 311 137 24
is_linear=0
shrinkage=0.05


Tree=21
num_leaves=14
num_cat=0
split_feature=18 5 18 20 5 7 7 7 5 7 7 20 3
split_gain=5.57686 3.94272 7.16344 6.17685 5.39849 10.9849 9.3693 4.43386 1.61033 0.827707 0.572446 0.400622 0.250443
threshold=1.5000000000000002 0.52795000000000014 17.000000000000004 -0.033099999999999997 0.63280000000000014 0.99745000000000006 0.99375000000000013 0.99435000000000007 0.87755000000000016 0.99865000000000015 0.9970500000000001 -0.0040999999999999986 0.89775000000000016
decision_type=2 2 2 2 2 2 2 2 2 2 2 2 2
left_child=8 2 3 -2 5 -3 -6 -4 9 11 12 -1 -10
right_child=1 4 7 -5 6 -7 -8 -9 10 -11 -12 -13 -14
leaf_value=-0.048003719216509658 -0.017281166542744739 0.024193330774030367 -0.049859557390276553 0.0090946304398388158 -0.015604120346711089 -0.065539947533263074 0.013449301458885995 0.009999490075304273 0.0062212808051191103 0.0037148959202374862 0.027843743691844065 -0.013274328484141243 -0.022880333151766626
leaf_weight=7.5028467136435184 33.764566138386726 53.75058801099658 11.960262157022951 60.358018793165684 51.071927214041352 2.6600999161601058 58.402758462354541 3.5047602578997603 0.40043678134679683 0.70993290841579515 0.7307216003537178 2.4896220723167053 0.57243026699870825
leaf_count=134 144 216 48 280 260 16 294 18 4 6 9 47 10
internal_value=0 0.00152714 -0.00577724 -0.000396791 0.00638825 0.0188069 -7.79456e-05 -0.0362069 -0.0314944 -0.0382946 0.00773955 -0.0418005 -0.0112857
internal_weight=287.879 275.473 109.588 94.1226 165.885 56.4107 109.475 15.465 12.406 10.7024 1.70359 9.99247 0.972867
internal_count=1486 1276 490 424 786 232 554 66 210 187 23 181 14
is_linear=0
shrinkage=0.05


Tree=22
num_leaves=16
num_cat=0
split_feature=17 20 20 20 7 20 5 5 5 20 14 20 16 5 14
split_gain=3.01695 3.99293 5.36254 4.94934 5.23246 4.05863 3.63981 7.1088 5.49657 5.78362 5.44607 4.70534 3.21239 3.03518 1.89453
threshold=0.22500000000000003 0.051750000000000011 0.039750000000000008 0.062750000000000014 0.99775000000000014 0.033450000000000008 0.45060000000000006 0.4179000000000001 0.52795000000000014 -0.033449999999999994 0.8207000000000001 0.032700000000000007 1.0000000180025095e-35 0.40680000000000005 0.92945000000000011
decision_type=2 2 2 2 2 2 2 2 2 2 2 2 2 2 2
left_child=1 2 5 14 -5 -1 7 13 9 -8 -10 -9 -4 -2 -3
right_child=6 3 12 4 -6 -7 8 11 10 -11 -12 -13 -14 -15 -16
leaf_value=0.0010278356199252508 -0.0036365240856664552 0.069360283500046541 -0.00099587574134660218 -0.0023165043011386085 0.058142294135591736 0.036070605036885785 0.016116494102220155 0.045240737357796074 0.048261771414132286 -0.044515890055622898 -0.0094726038655912059 -0.02911389672584971 -0.054496516327691327 -0.054312188916292331 -0.0046139482803301051
leaf_weight=145.63857252616435 19.441942591220144 4.7506867200136211 5.202859763056038 18.661192193627361 3.3706118464469901 7.7922921329736701 4.1999335251748589 11.150898985564707 3.6931107416748992 19.167663373053074 30.233750952407718 1.7741675674915303 5.744841568171978 2.5872257053852072 0.73270580917596806
leaf_count=803 125 23 21 101 14 30 30 40 31 74 143 8 24 13 6
internal_value=0 0.00356965 0.000538861 0.0208467 0.00883874 0.00306198 -0.00738415 0.00513934 -0.0150674 -0.0331989 -0.00184291 0.0333175 -0.0317005 -0.0119052 0.0595174
internal_weight=284.142 191.894 164.379 27.5152 22.0318 153.431 92.2487 34.9542 57.2945 23.3676 33.9269 12.9251 10.9477 22.0292 5.48339
internal_count=1486 1022 878 144 115 833 464 186 278 104 174 48 45 138 29
is_linear=0
shrinkage=0.05


Tree=23
num_leaves=13
num_cat=0
split_feature=18 3 3 3 20 7 7 20 0 2 3 3
split_gain=5.14303 5.01318 3.22018 5.34251 3.10385 2.1444 1.44902 1.24983 1.63258 2.58518 0.99164 1.43955
threshold=1.5000000000000002 0.62055000000000005 0.91305000000000003 0.90665000000000007 0.081500000000000003 0.99675000000000014 0.99155000000000015 -0.012599999999999998 3.5000000000000004 3.5000000000000004 0.62225000000000008 0.61145000000000016
decision_type=2 2 2 2 2 2 2 2 2 2 2 2
left_child=7 5 3 -3 -4 6 -2 10 -9 -10 11 -1
right_child=1 2 4 -5 -6 -7 -8 8 9 -11 -12 -13
leaf_value=-0.039355298783407461 0 0.00023024962429327051 0.0081681578580069976 -0.044806101346087271 0.061217028417125632 -0.0093311506274378862 0.068986731347541894 -0.037018959573044692 0.043191005261600315 -0.032736733939720902 -0.054538567493635462 0.015612846926377821
leaf_weight=1.1878132726997139 0.76982596516609092 243.75018691085279 11.557954408228396 5.762544907629489 2.9435684271156779 1.0269675254821775 3.5978322178125381 1.4629035275429467 1.8548638895154002 0.87352630402892817 4.8123884978704154 1.6141203418374059
leaf_count=24 9 1135 64 27 11 9 21 42 19 13 104 8
internal_value=0 0.00146626 0.000386165 -0.00096462 0.0225132 0.0452178 0.0583243 -0.0309622 -0.00562534 0.0152804 -0.0420564 -0.0105968
internal_weight=281.214 269.409 264.014 249.513 14.5015 5.39463 4.36766 11.8056 4.19129 2.72839 7.61432 2.80193
internal_count=1486 1276 1237 1162 75 39 30 210 74 32 136 32
is_linear=0
shrinkage=0.05


Tree=24
num_leaves=15
num_cat=0
split_feature=6 5 5 0 5 5 7 5 5 10 10 9 10 14
split_gain=3.68223 6.51785 7.08783 8.29062 5.01498 4.84802 5.64238 4.38409 3.18998 5.23746 4.9763 3.84583 2.30759 0.216825
threshold=0.89875000000000005 0.66775000000000018 0.58860000000000012 8.5000000000000018 0.55925000000000014 0.73615000000000019 0.99795000000000011 0.79640000000000011 0.67305000000000004 0.71500000000000008 0.75500000000000012 0.60500000000000009 0.80500000000000016 0.66365000000000018
decision_type=2 2 2 2 2 2 2 2 2 2 2 2 2 2
left_child=1 2 4 -4 -1 6 -3 -7 9 11 -10 -2 -12 -11
right_child=8 5 3 -5 -6 7 -8 -9 10 13 12 -13 -14 -15
leaf_value=-3.5959702143195845e-05 0.036294987473916428 -0.043492690988880027 0.035093276913200515 -0.039876190249578697 -0.028662393421731099 0.011780274143312721 0.030528863975136107 -0.055860599002828928 0.064253141010161885 -0.060458084444829398 -0.017618499367217839 -0.021815513466975543 0.014011670398317562 -0.0063127765632938516
leaf_weight=127.88550514215603 4.9287096858024579 21.089835412800316 23.151963715441529 3.4338560104370108 16.433796335011721 13.295865081250666 2.1194193810224524 1.8767993384972204 3.7958548404276362 3.0017918162047859 5.5596923306584349 4.4646755233407021 46.846560524776578 0.68654394149780262
leaf_count=639 33 105 130 10 73 38 10 26 16 22 27 40 310 7
internal_value=0 -0.00331151 0.000880935 0.0241344 -0.0035049 -0.0216547 -0.0355448 0.000167534 0.00990793 -0.0114773 0.0150866 0.00875247 0.0102954 -0.0549422
internal_weight=278.571 209.287 170.905 26.5858 144.319 38.3819 23.2093 15.1727 69.2838 13.0817 56.2021 9.39339 52.4063 3.68834
internal_count=1486 1031 852 140 712 179 115 64 455 102 353 73 337 29
is_linear=0
shrinkage=0.05


Tree=25
num_leaves=14
num_cat=0
split_feature=18 3 1 5 21 7 7 5 5 7 11 3 3
split_gain=5.0051 4.4284 4.21555 7.17405 4.7838 2.08616 1.42744 1.2965 1.28033 0.672364 0.429821 0.20646 0.0647787
threshold=1.5000000000000002 0.62055000000000005 8.0000000000000018 0.74320000000000019 1.0000000180025095e-35 0.9960500000000001 0.99155000000000015 0.87755000000000016 0.35515000000000002 0.99865000000000015 0.035350000000000006 0.89775000000000016 0.62225000000000008
decision_type=2 2 2 2 2 2 2 2 2 2 2 2 2
left_child=7 5 4 -4 -3 6 -2 9 -7 12 -9 -12 -1
right_child=1 2 3 -5 -6 8 -8 10 -10 -11 11 -13 -14
leaf_value=-0.015959273518126295 0 0.032996386284158359 -0.011206987302198814 0.020862964032574378 0.0031748746554905341 0.027954624268800018 0.070083548368725102 0.024195435660661999 -0.033670227071037458 0.001941159842099222 0.0055310587465283593 -0.021125959163656973 -0.045857264428158018
leaf_weight=2.304809477180239 0.77495335042476599 14.374824292957781 106.70874404907227 19.774064933881164 114.89075893163681 0.55967243015766122 3.1335745379328728 0.63023298978805431 0.80302964150905609 0.66325585544109422 0.35846879705786705 0.52582612354308367 6.6601569610647857
leaf_count=29 9 216 464 118 439 4 15 9 11 6 4 10 152
internal_value=0 0.00145433 0.000415077 -0.00602969 0.00675737 0.042973 0.0583886 -0.031382 -0.00512479 -0.0377097 0.00585534 -0.0104659 -0.0410454
internal_weight=272.162 261.02 255.748 126.483 129.266 5.27123 3.90853 11.1428 1.3627 9.62822 1.51453 0.884295 8.96497
internal_count=1486 1276 1237 582 655 39 24 210 15 187 23 14 181
is_linear=0
shrinkage=0.05


Tree=26
num_leaves=13
num_cat=0
split_feature=18 20 20 20 16 9 16 5 7 7 5 20
split_gain=4.12861 4.36348 3.62686 3.56239 3.14557 2.59101 2.35253 1.14163 0.62693 0.388558 0.191261 0.104836
threshold=1.5000000000000002 -0.17754999999999996 0.18525000000000003 0.13205000000000003 1.0000000180025095e-35 0.59500000000000008 3.5000000000000004 0.87755000000000016 0.99865000000000015 0.9970500000000001 0.89555000000000007 -0.0040999999999999986
decision_type=2 2 2 2 2 2 2 2 2 2 2 2
left_child=7 4 3 -3 5 -2 -4 8 11 10 -9 -1
right_child=1 2 6 -5 -6 -7 -8 9 -10 -11 -12 -13
leaf_value=-0.04320979237050071 0.030940324499769051 0 0.0017176462390738733 0.03522089163339364 0.061797720394238177 -0.042660616214813818 -0.063628211081867378 0.00542856569779996 0.0025916865715321829 0.023440358471708927 -0.020186213363436588 -0.013571898245930381
leaf_weight=6.4326800592243645 1.6172969192266458 240.48020926862955 1.9067207425832737 6.4031534977257243 4.0271890908479691 1.1905435398221014 2.6229166090488434 0.35396212339401134 0.64674196764826852 0.61075600981712341 0.50378326512873173 2.1613204665482035
leaf_count=134 4 1191 9 47 12 9 4 4 6 9 10 47
internal_value=0 0.00131168 0.000145998 0.00105848 0.0380597 -0.00196172 -0.0398809 -0.0290412 -0.0351344 0.00597572 -0.00969219 -0.0384688
internal_weight=268.957 258.248 251.413 246.883 6.83503 2.80784 4.52964 10.7092 9.24074 1.4685 0.857745 8.594
internal_count=1486 1276 1251 1238 25 13 13 210 187 23 14 181
is_linear=0
shrinkage=0.05


Tree=27
num_leaves=15
num_cat=0
split_feature=18 0 10 3 3 11 6 11 11 3 11 9 10 10
split_gain=3.5388 2.73797 2.73487 3.58085 3.33557 2.70176 2.53952 1.98257 0.854358 0.459029 0.377351 0.30385 0.0283322 0.435363
threshold=1.5000000000000002 9.5000000000000018 0.91000000000000014 0.87550000000000006 0.66830000000000012 0.048950000000000007 0.96790000000000009 0.057650000000000007 0.039350000000000003 0.86745000000000017 0.03790000000000001 0.59500000000000008 0.65500000000000014 0.64500000000000013
decision_type=2 2 2 2 2 2 2 2 2 2 2 2 2 2
left_child=6 2 4 -4 -2 11 12 -7 10 -10 -8 -3 13 -1
right_child=1 5 3 -5 -6 7 8 -9 9 -11 -12 -13 -14 -15
leaf_value=-0.02748091614207784 -0.0057089154706619688 0.00088742141405401742 -0.019468834351656861 0.00097485470275010175 0.0094161505633600685 -0.039403549330990474 0.00027013092545395836 0.022415526249391939 -0.033933387498217081 0.0074383139658126029 0.032958779047419604 0.038222129743767229 -0.051389434788935588 0.0097223335244157882
leaf_weight=0.68772874772548476 55.863807167857885 0.92282939702272315 34.065494194626808 53.710900098085403 99.738624513149261 1.8550263047218316 2.6497779525816445 1.3962812945246694 1.0561803355813024 0.2965249828994273 0.64524972438812245 8.6178207714110595 4.5150793762877584 0.50056938640773296
leaf_count=17 287 9 143 230 493 12 28 11 22 2 1 91 137 3
internal_value=0 0.00120591 -1.67663e-06 -0.00703283 0.0039523 0.0228782 -0.0273212 -0.0126512 1.45432e-05 -0.0234323 0.0140188 0.035512 -0.0470223 -0.012243
internal_weight=266.522 256.171 243.379 87.7764 155.602 12.792 10.3511 3.25131 4.64773 1.35271 3.29503 9.54065 5.70338 1.1883
internal_count=1486 1276 1153 373 780 123 210 23 53 24 29 100 157 20
is_linear=0
shrinkage=0.05


Tree=28
num_leaves=13
num_cat=0
split_feature=18 9 9 5 3 6 11 11 17 7 3 11
split_gain=3.14424 2.39505 3.04772 6.86065 3.12302 2.36339 2.17621 2.89815 1.82801 0.740307 0.499332 0.33059
threshold=1.5000000000000002 0.57500000000000007 0.59500000000000008 0.45910000000000006 0.64875000000000016 0.96790000000000009 0.05075000000000001 0.053450000000000004 0.13635000000000003 0.9940500000000001 0.86940000000000006 0.03790000000000001
decision_type=2 2 2 2 2 2 2 2 2 2 2 2
left_child=5 6 3 -3 -4 -1 8 -8 -2 10 -7 -11
right_child=1 2 4 -5 -6 9 7 -9 -10 11 -12 -13
leaf_value=-0.045923848542366814 -0.0047852917210533417 -0.048002009255648626 0.029086455905623972 0.016241230991508235 0.0002583434640933232 -0.032990722900297205 -0.047553499165024826 0.019483189770475515 0.058660122390011331 0.00027099035948021521 0.0099225800407100051 0.031314577758634575
leaf_weight=5.3762386292219144 1.1236446872353534 8.6681843847036344 8.8356637209653837 6.4507273808121672 219.41985221579671 1.0434702299535272 1.1877697110176084 5.0871768593788147 3.7248133420944214 2.6153616011142735 0.24184364080429066 0.61050385236740101
leaf_count=157 9 44 53 23 1091 23 7 25 24 28 1 1
internal_value=0 0.00112135 2.02367e-05 -0.0209743 0.00151808 -0.026315 0.0228119 0.00131431 0.0447974 0.000239279 -0.0219196 0.0133492
internal_weight=264.385 254.498 243.374 15.1189 228.256 9.88742 11.1234 6.27495 4.84846 4.51118 1.28531 3.22587
internal_count=1486 1276 1211 67 1144 210 65 32 33 53 24 29
is_linear=0
shrinkage=0.05


Tree=29
num_leaves=14
num_cat=0
split_feature=18 21 10 3 16 11 7 5 6 20 3 10 3
split_gain=2.64382 2.46683 3.54843 5.88373 3.81194 2.65602 6.1265 3.83298 2.05597 1.80277 1.39917 0.221534 0.458087
threshold=1.5000000000000002 1.0000000180025095e-35 0.72500000000000009 0.65775000000000017 1.0000000180025095e-35 0.057650000000000007 0.99025000000000007 0.70060000000000011 0.96790000000000009 -0.012599999999999998 0.61290000000000011 0.65500000000000014 0.61910000000000009
decision_type=2 2 2 2 2 2 2 2 2 2 2 2 2
left_child=8 2 4 -4 -2 6 -3 -7 11 10 -10 12 -1
right_child=1 5 3 -5 -6 7 -8 -9 9 -11 -12 -13 -14
leaf_value=-0.025378032027835812 -0.01260865321037322 -0.034747719815063215 -0.044822085074501986 0.0061703653072800752 0.045099048591455325 0.02061251290784968 -0.0017832752732020681 -0.032465133088698063 0.013998077182198036 0.032981510402619679 -0.041819534165063788 -0.048870989316391653 0.012389051262094429
leaf_weight=0.62035186588763991 3.2489718105643979 15.471151806414126 5.0041541159152976 94.398148510605097 9.6018335074186307 19.276870302855972 101.52861915901303 3.0980284810066214 1.0827876552939417 1.6155580878257749 1.7172718271613119 3.9836917938664556 0.53928236290812492
leaf_count=14 43 79 21 563 64 80 410 16 7 20 26 137 6
internal_value=0 0.00102453 0.00652593 0.00313262 0.0302913 -0.00338564 -0.00644215 0.011975 -0.0245123 0.000329609 -0.0209155 -0.0432354 -0.00789536
internal_weight=261.187 251.628 112.253 99.4023 12.8508 139.375 117 22.3749 9.55894 4.41562 2.80006 5.14333 1.15963
internal_count=1486 1276 691 584 107 585 489 96 210 53 33 157 20
is_linear=0
shrinkage=0.05


Tree=30
num_leaves=16
num_cat=0
split_feature=6 5 5 7 20 11 7 7 7 20 20 11 7 20 14
split_gain=2.8944 4.9695 8.57376 4.43483 4.41851 4.12335 4.74949 1.90919 4.99572 2.28457 2.96205 2.10331 1.18463 1.1519 0.784889
threshold=0.89875000000000005 0.63280000000000014 0.58860000000000012 0.9950500000000001 0.062750000000000014 0.07425000000000001 0.99255000000000015 0.99015000000000009 0.98575000000000013 0.048900000000000006 -0.039749999999999994 0.082150000000000015 0.98955000000000015 -0.029249999999999995 0.8095500000000001
decision_type=2 2 2 2 2 2 2 2 2 2 2 2 2 2 2
left_child=1 2 4 -4 -1 6 -3 8 11 10 -9 -2 -10 -7 -11
right_child=7 5 3 -5 -6 13 -8 9 12 14 -12 -13 -14 -15 -16
leaf_value=0.0012706378299203872 0.053776587991809691 -0.044817342998337215 0.053027606739267263 -0.0038659890565124026 -0.023395760990676279 -0.0018612333259859549 -0.0090889272922824622 0.026467546381802085 -0.010225025417961477 0.0028788969933153164 0 -0.02316280023452642 -0.054228752152396746 0.05209487179088116 0.049401395072764573
leaf_weight=111.41460518911481 2.3890654332935797 13.668149869889019 10.3007216155529 4.5040500611066809 20.606238808482885 1.2156742475926878 28.707014826126397 14.743719499558205 4.3148048892617226 1.5289659798145283 31.475191386416558 0.46524490416049946 2.6142890527844429 1.5946730822324742 4.4071661606431007
leaf_count=626 32 63 54 29 86 5 161 79 34 16 226 5 22 7 41
internal_value=0 -0.00303626 0.00142273 0.0362531 -0.00268872 -0.0173506 -0.021496 0.00931119 -0.00992536 0.0131325 0.00876044 0.0371826 -0.0322032 0.0330797 0.0402821
internal_weight=253.95 192.011 146.826 14.8048 132.021 45.1855 42.3752 61.9384 9.7834 52.155 46.2189 2.85431 6.92909 2.81035 5.93613
internal_count=1486 1031 795 83 712 236 224 455 93 362 305 37 56 12 57
is_linear=0
shrinkage=0.05


Tree=31
num_leaves=14
num_cat=0
split_feature=18 5 5 7 7 3 6 7 3 5 10 3 5
split_gain=2.59815 1.89571 3.29662 2.43996 2.58894 2.24253 1.73091 0.575326 0.443724 0.276177 0.134993 0.45662 0.0696997
threshold=1.5000000000000002 0.79920000000000013 0.79640000000000011 0.99015000000000009 0.99355000000000016 0.91305000000000003 0.96790000000000009 0.9940500000000001 0.86940000000000006 0.61520000000000008 0.65500000000000014 0.61910000000000009 0.85735000000000017
decision_type=2 2 2 2 2 2 2 2 2 2 2 2 2
left_child=6 2 5 12 -5 -2 10 8 -8 -9 11 -1 -3
right_child=1 3 -4 4 -6 -7 7 9 -10 -11 -12 -13 -14
leaf_value=-0.025761766091769424 -0.00092285229504078861 -0.034392954097969879 -0.054838140450080279 0.046901710276991637 0.0086407347664619657 0.032226255336735031 -0.031533318698312045 -0.0056220895869192218 0.0091750187799696011 0.018594296599337062 -0.047612099837185042 0.012112361291374678 -0.00010071233529975875
leaf_weight=0.63233097270130911 202.38707636669278 1.7039287947118276 1.7872003987431515 4.4898256957530966 30.169686513021588 4.2324551269412032 0.98333980515599229 0.87349266558885608 0.23035944998264313 2.1905994042754173 3.7373349098488688 0.51231078151613474 0.48123443871736515
leaf_count=14 1003 17 4 33 177 30 23 7 1 22 137 6 12
internal_value=0 0.00102232 -0.00082098 0.011327 0.0149136 -6.77865e-05 -0.0247788 0 -0.0208939 0.0107758 -0.0423818 -0.00873529 -0.0308133
internal_weight=254.411 245.251 208.407 36.8447 34.6595 206.62 9.15977 4.27779 1.2137 3.06409 4.88198 1.14464 2.18516
internal_count=1486 1276 1037 239 210 1033 210 53 24 29 157 20 29
is_linear=0
shrinkage=0.05


Tree=32
num_leaves=12
num_cat=0
split_feature=18 20 3 3 7 17 6 9 20 3 3
split_gain=2.29277 1.98434 2.75564 4.5286 3.05225 2.1141 1.64553 1.49248 1.36595 1.36138 0.405933
threshold=1.5000000000000002 -0.17754999999999996 0.66415000000000013 0.69945000000000002 0.99455000000000016 1.0000000180025095e-35 0.96790000000000009 0.59500000000000008 -0.012599999999999998 0.61290000000000011 0.64690000000000014
decision_type=2 2 2 2 2 2 2 2 2 2 2
left_child=6 5 4 -4 -3 7 -1 -2 9 -8 -7
right_child=1 2 3 -5 -6 10 8 -9 -10 -11 -12
leaf_value=-0.041389825992530167 0.021342500862612083 -0.025133353903149327 0.019944497339008011 -0.00063052933757522386 0.0019106294122060614 0.011400261033565569 0.01420615055691332 -0.037552662378081483 0.028953706762410943 -0.040563251854741252 0.061499777437286768
leaf_weight=4.6176803512498719 1.2886073291301721 19.702126242220402 30.744912901893258 166.9292814899236 20.133137580007315 1.4411185756325724 1.1323094218969347 1.0059966295957563 1.4564513638615606 1.6308355927467344 1.9131093621253965
leaf_count=157 4 111 153 845 142 8 7 9 20 26 4
internal_value=0 0.00095354 0.000177417 0.00262869 -0.0116305 0.0278995 -0.0236666 -0.00652155 0 -0.0189797 0.0486849
internal_weight=251.996 243.158 237.509 197.674 39.8353 5.64883 8.83728 2.2946 4.2196 2.76315 3.35423
internal_count=1486 1276 1251 998 253 25 210 13 53 33 12
is_linear=0
shrinkage=0.05


Tree=33
num_leaves=16
num_cat=0
split_feature=21 19 14 7 5 5 7 8 7 14 9 14 5 11 14
split_gain=2.43481 3.56149 4.9324 3.77425 2.82667 4.81176 2.30113 2.65643 3.46298 2.07309 2.84516 2.05794 1.74461 1.05595 0.679881
threshold=1.0000000180025095e-35 1.5000000000000002 0.87385000000000013 0.99555000000000016 0.40680000000000005 0.51505000000000012 0.98155000000000014 0.7793500000000001 0.99185000000000012 0.69585000000000008 0.56500000000000006 0.65775000000000017 0.37170000000000009 0.078200000000000006 0.88695000000000002
decision_type=2 2 2 2 2 2 2 2 2 2 2 2 2 2 2
left_child=1 2 3 -1 11 -6 9 12 -9 10 -2 -3 -8 -11 -4
right_child=6 4 14 -5 5 -7 7 8 -10 13 -12 -13 -14 -15 -16
leaf_value=-0.05975992006710179 -0.014992206820173432 0 0 0.016019632071928296 -0.014291017760468675 0.01209099245723344 -0.02480542476353112 -0.05432337151315874 0 -0.019087131920418974 0.062404045772896627 0.058583014418865403 -0.0021698378227096651 0.013859037229397304 0.04079187251304215
leaf_weight=5.591754684224723 1.1127150077372774 1.9839655756950367 1.4964995905756953 1.5852072685956953 21.362764868885279 74.431914527900517 8.382353922352193 5.3484327010810357 5.5715417675673962 3.2370975874364376 2.8422756791114807 3.6145577654242516 105.56738568190485 4.7073497995734215 1.5983226262032983
leaf_count=52 14 19 15 20 128 508 60 44 41 17 9 21 497 22 19
internal_value=0 0.00545176 -0.0211905 -0.0424985 0.00838022 0.00606914 -0.00445835 -0.00651901 -0.0290755 0.0156072 0.0409888 0.040254 -0.00407976 0 0.0253135
internal_weight=248.434 111.665 10.2718 7.17696 101.393 95.7947 136.769 124.87 10.92 11.8994 3.95499 5.59852 113.95 7.94445 3.09482
internal_count=1486 782 106 72 676 636 704 642 85 62 23 40 557 39 34
is_linear=0
shrinkage=0.05


Tree=34
num_leaves=15
num_cat=0
split_feature=6 18 18 7 20 7 20 20 21 20 20 10 10 3
split_gain=2.24818 3.18176 2.67394 4.67667 2.2202 2.92686 2.89519 2.44813 2.3538 2.18632 0.122502 0.0833357 0.32287 0.0285107
threshold=0.96790000000000009 1.5000000000000002 8.5000000000000018 0.99595000000000011 0.048900000000000006 0.99035000000000006 -1.0000000180025095e-35 -0.0081499999999999993 1.0000000180025095e-35 -0.041599999999999991 0.13820000000000002 0.65500000000000014 0.64500000000000013 0.81935000000000013
decision_type=2 2 2 2 2 2 2 2 2 2 2 2 2 2
left_child=1 11 3 -3 6 13 7 -2 -8 -4 -7 12 -1 -6
right_child=4 2 9 -5 5 10 8 -9 -10 -11 -12 -13 -14 -15
leaf_value=-0.02310429730441543 0.0071328616734227124 0.034712077375995923 -0.012832655196799398 -0.029635968984860622 -0.00043541630546769529 0.054799229198977534 0.024918490050244855 0.046197571054656286 -0.021664125700770209 8.3469293159643137e-05 0.0037179047343219927 -0.045378007776939226 0.0087928205655176395 -0.024519317017744929
leaf_weight=0.58100505918264278 28.400497987866398 10.349514238536356 42.55017214268446 2.8315419256687155 0.67266388982534298 4.1702011749148369 2.4199762791395161 3.9083728902041939 12.428065583109856 129.19482668861747 0.49704755004495371 3.3122057104483247 0.52898745238780975 0.53315987437963486
leaf_count=17 164 49 194 18 7 36 100 21 48 682 6 137 3 4
internal_value=0 -0.00255504 -0.0014123 0.0194212 0.00900142 0.0357291 0.00489604 0.0132537 -0.0126632 -0.00314334 0.0518574 -0.0403459 -0.0085706 -0.0196391
internal_weight=242.378 189.348 184.926 13.1811 53.03 5.87307 47.1569 32.3089 14.848 171.745 4.66725 4.4222 1.10999 1.20582
internal_count=1486 1100 943 67 386 53 333 185 148 876 42 157 20 11
is_linear=0
shrinkage=0.05


Tree=35
num_leaves=12
num_cat=0
split_feature=5 3 18 3 5 7 5 20 5 5 20
split_gain=2.08481 3.26901 5.29284 2.84214 2.77587 5.3697 3.80966 2.14732 0.703846 0.924339 0.028857
threshold=0.92500000000000016 0.90665000000000007 17.000000000000004 0.94170000000000009 0.74320000000000019 0.99015000000000009 0.7199000000000001 0.060450000000000011 0.92815000000000014 0.93290000000000017 0.068550000000000014
decision_type=2 2 2 2 2 2 2 2 2 2 2
left_child=1 4 7 -4 6 -6 -1 -3 -2 -10 -11
right_child=8 2 3 -5 5 -7 -8 -9 9 10 -12
leaf_value=0 0.045478387754480147 -0.049068154321150914 0.044187700105671544 -0.032822793226285896 -0.035805600792291135 0.02053683445144355 -0.033649513421355658 0.0049233203050418652 -0.024457530677212944 0.027523726116575421 0
leaf_weight=177.57633932866156 2.3075810074806204 9.0037693139165622 2.9588482510298486 0.80586290359497059 3.8752751275897017 31.707707152701914 7.8341878876090041 1.8472689688205708 0.69304021447896946 0.83342230319976784 0.36031059920787811
leaf_count=1067 11 53 24 4 42 219 39 7 3 13 4
internal_value=0 -0.000687894 -0.0228096 0.0232247 0.000848797 0.013453 -0.0016025 -0.0398149 0.0313344 0.00254216 0.0244999
internal_weight=239.804 235.609 14.6157 3.76471 220.994 35.583 185.411 10.851 4.19435 1.88677 1.19373
internal_count=1486 1455 88 28 1367 261 1106 60 31 20 17
is_linear=0
shrinkage=0.05


Tree=36
num_leaves=13
num_cat=0
split_feature=5 18 3 3 8 6 20 20 20 20 5 10
split_gain=2.09629 2.24636 2.03723 5.83149 3.18673 0.892083 0.855485 0.4733 0.262091 2.10399 1.05656 0.0892354
threshold=0.91515000000000002 1.5000000000000002 0.86940000000000006 0.86305000000000021 0.93830000000000013 0.96790000000000009 -0.012599999999999998 0.062750000000000014 0.033450000000000008 0.028800000000000003 0.92815000000000014 0.65500000000000014
decision_type=2 2 2 2 2 2 2 2 2 2 2 2
left_child=1 5 3 -3 -4 11 -7 8 9 -2 -10 -1
right_child=7 2 4 -5 -6 6 -8 -9 10 -11 -12 -13
leaf_value=-0.0076642595052049088 0.037621891046237838 0.00087399686304252301 -0.012786618866904917 0.042878579314783713 0.014098172401138261 -0.018673540025941935 0.021006094386881363 -0.002761270775848871 0.056167349795433912 -0.032369208168369426 0 -0.044155778068566479
leaf_weight=1.0621475055813769 1.578669257462024 148.03669763170183 51.822141081094742 7.774971153587102 12.884370749816297 2.7302614599466328 1.0979791581630705 0.73130252957344044 1.9277443736791613 0.83449734747409809 1.111161336302757 3.1106982976198196
leaf_count=20 15 850 282 31 77 33 15 7 9 3 8 136
internal_value=0 -0.000832432 0.000143751 0.00326198 -0.00722413 -0.0253195 -0.00426384 0.0265974 0.0311279 0.00956097 0.0404086 -0.0391111
internal_weight=234.703 228.519 220.518 155.812 64.7065 8.00109 3.82824 6.18337 5.45207 2.41317 3.03891 4.17285
internal_count=1486 1444 1240 881 359 204 48 42 35 18 17 156
is_linear=0
shrinkage=0.05


Tree=37
num_leaves=13
num_cat=0
split_feature=18 20 20 7 9 6 20 10 7 11 10 10
split_gain=1.83737 1.61353 2.25295 2.51641 1.90323 1.11772 1.06721 0.986392 0.942072 1.37632 0.0996327 0.313481
threshold=1.5000000000000002 -0.17754999999999996 -0.12709999999999996 0.98585000000000012 0.64500000000000013 0.96790000000000009 -0.012599999999999998 0.64500000000000013 0.99795000000000011 0.037450000000000004 0.65500000000000014 0.64500000000000013
decision_type=2 2 2 2 2 2 2 2 2 2 2 2
left_child=5 8 4 -4 -3 10 7 -7 9 -2 11 -1
right_child=1 2 3 -5 -6 6 -8 -9 -10 -11 -12 -13
leaf_value=-0.022021619013728799 0.056775691445038912 -0.038302725175789677 0.015361634508044359 -0.00084540921701454 0.0075611151381382441 0.0094612619176091071 0.025534090836600368 -0.037692755121195326 -0.0069421465854507787 0.00049290657845236065 -0.043161272851768878 0.0094840504504658876
leaf_weight=0.5544043481349934 2.0706892013549796 5.7186423391103727 26.477981247007847 183.06331260409206 2.7350298464298248 1.2067458033561713 1.259993143379688 1.4390551522374151 1.1132025122642515 1.9917129725217817 2.9466487718746066 0.51629389822483063
leaf_count=17 7 44 167 1028 12 8 20 25 6 12 137 3
internal_value=0 0.000885672 0.000147933 0.00124203 -0.0237052 -0.0222502 -0.000682711 -0.0181184 0.0260938 0.0357173 -0.0379069 -0.00717144
internal_weight=231.094 223.171 217.995 209.541 8.45367 7.92314 3.90579 2.6458 5.1756 4.0624 4.01735 1.0707
internal_count=1486 1276 1251 1195 56 210 53 33 25 19 157 20
is_linear=0
shrinkage=0.05


Tree=38
num_leaves=16
num_cat=0
split_feature=21 20 5 5 0 10 7 7 16 5 14 18 7 20 7
split_gain=1.71703 2.42779 3.96807 4.80523 2.66943 3.13418 2.18325 2.03524 1.61564 4.23407 4.29798 3.64594 2.04852 3.9198 3.70437
threshold=1.0000000180025095e-35 -0.049649999999999993 0.40680000000000005 0.51830000000000009 7.5000000000000009 0.74500000000000011 0.99125000000000008 0.98655000000000015 1.5000000000000002 0.46400000000000002 0.68945000000000001 8.5000000000000018 0.98465000000000014 -0.10634999999999999 0.99025000000000007
decision_type=2 2 2 2 2 2 2 2 2 2 2 2 2 2 2
left_child=1 4 7 -4 5 -1 -6 -3 12 10 -10 -11 13 -2 -14
right_child=8 2 3 -5 6 -7 -8 -9 9 11 -12 -13 14 -15 -16
leaf_value=-0.018112410230208622 -0.035651837180643346 -0.0034318634305851485 -0.015031086609227667 0.011780764754212225 -0.056637443417779369 0.044392256650391398 0.0013333876038220784 0.064836637905015856 -0.021045334908900298 0.00050852110114101153 0.023754990115098139 -0.054081132234817114 -0.027659060795829828 0.03595674337675616 0.001211083203771373
leaf_weight=4.130910959094761 1.5364899914711712 1.1493508666753758 21.406931549310684 64.202878803014755 3.6359181255102158 2.2765794917941093 2.1777828950434923 3.3473615609109402 9.7562674619257503 4.3964017033576948 9.6384436897933465 7.75616554915905 12.007770892232655 7.4485706370323879 74.022860293276608
leaf_count=31 12 8 147 515 10 23 16 32 69 16 43 43 71 47 403
internal_value=0 0.00479081 0.00769244 0.00492253 -0.0151883 0.00641534 -0.0371794 0.0490279 -0.00388062 -0.013502 0.00104669 -0.0354151 -0.000526698 0.0208664 -0.00303254
internal_weight=228.891 102.328 90.1065 85.6098 12.2212 6.40749 5.8137 4.49671 126.563 31.5473 19.3947 12.1526 95.0157 8.98506 86.0306
internal_count=1486 782 702 662 80 54 26 40 704 171 112 59 533 59 474
is_linear=0
shrinkage=0.05


Tree=39
num_leaves=13
num_cat=0
split_feature=18 3 5 5 18 7 11 7 11 20 5 20
split_gain=1.81238 1.56188 1.77833 4.31992 3.75259 1.35594 0.867936 0.645115 1.31464 0.752114 0.594092 0.389799
threshold=1.5000000000000002 0.62055000000000005 0.4179000000000001 0.44815000000000005 11.500000000000002 0.99675000000000014 0.053350000000000009 0.99645000000000017 0.026750000000000006 -0.0040999999999999986 0.87755000000000016 -0.0029999999999999996
decision_type=2 2 2 2 2 2 2 2 2 2 2 2
left_child=7 5 4 -4 -3 6 -2 9 10 -1 -9 -11
right_child=1 2 3 -5 -6 -7 -8 8 -10 11 -12 -13
leaf_value=-0.045310508143601901 0.053604585981360232 0.013675894480549403 0.02705415223541828 -0.00038892292261849277 -0.02780697872904421 -0.0098161718168175878 -0.003726397347871729 -0.030706506390613258 0.028184244946080402 0.01948326991358312 0.011798031780679889 -0.015124287065461981
leaf_weight=2.7978011891245842 2.2747660577297211 7.621288217604163 14.592421282082794 174.48944408074021 13.985615145415066 1.0559019073843954 0.47674827277660359 2.2020455775782475 1.039709787815809 0.39392116665840149 0.31884997710585583 0.94701177906244882
leaf_count=97 25 43 73 1035 86 9 5 63 7 1 8 34
internal_value=0 0.000903243 0.00023519 0.00183388 -0.0129961 0.0290922 0.0439928 -0.0223747 -0.00334958 -0.0339323 -0.0220864 0
internal_weight=222.196 214.496 210.689 189.082 21.6069 3.80742 2.75151 7.69934 3.56061 4.13873 2.5209 1.34093
internal_count=1486 1276 1237 1108 129 39 30 210 78 132 71 35
is_linear=0
shrinkage=0.05


Tree=40
num_leaves=16
num_cat=0
split_feature=19 20 3 11 5 20 11 20 17 20 20 3 3 5 5
split_gain=1.78963 4.24609 2.47968 7.74012 6.24818 2.41686 2.59576 2.06949 4.08578 4.92473 4.01106 3.23881 4.55758 2.96303 1.86304
threshold=1.5000000000000002 -0.06809999999999998 0.86585000000000012 0.03790000000000001 0.55500000000000005 -0.10854999999999998 0.040250000000000008 -0.054299999999999994 1.0000000180025095e-35 -0.17754999999999996 -0.061349999999999995 0.87070000000000014 0.86180000000000012 0.7511500000000001 0.57715000000000016
decision_type=2 2 2 2 2 2 2 2 2 2 2 2 2 2 2
left_child=1 5 3 -3 -4 14 -7 8 10 -10 -2 12 -9 -13 -1
right_child=7 2 4 -5 -6 6 -8 11 9 -11 -12 13 -14 -15 -16
leaf_value=-0.023630658740071947 0.017993007766244528 0.017137963333061609 0.035788726663728336 -0.044729505745480291 -0.026394415141061146 -0.018987594052041808 0.054721327002774406 0.0068960863064022847 0.039852349522960608 -0.035198115732361028 -0.043342914211291224 -0.015594027436895003 0.044781249859232833 0.0078697788487937098 0.034225414183217964
leaf_weight=3.5354867046698928 15.15769710019231 6.4685115627944496 5.9808892197906962 15.747676728293298 8.5872431118041259 0.88488355930894425 4.2185846026986837 80.129113788716495 1.6250361874699617 14.909429019317029 2.1858451943844548 27.996134273707867 7.9912111461162558 23.94617161527276 0.9924305323511361
leaf_count=32 103 48 33 105 73 9 25 545 9 106 18 141 54 181 4
internal_value=0 -0.00861611 -0.0163913 -0.0265384 0 0.0193572 0.0401048 0.0023353 -0.00853622 -0.0256847 0.0080487 0.0050422 0.0108517 -0.00473809 -0.00614784
internal_weight=220.356 46.4157 36.7843 22.2162 14.5681 9.63139 5.10347 173.941 33.878 16.5345 17.3435 140.063 88.1203 51.9423 4.52792
internal_count=1486 329 259 153 106 70 34 1157 236 115 121 921 599 322 36
is_linear=0
shrinkage=0.05


Tree=41
num_leaves=11
num_cat=0
split_feature=5 7 5 7 7 10 5 19 7 5
split_gain=1.26683 3.36552 2.12508 2.92577 3.93088 2.78617 1.16817 0.876789 1.45658 0.0829668
threshold=0.34595000000000004 0.98415000000000008 0.36325000000000007 0.98585000000000012 0.98735000000000006 0.82500000000000007 0.33405000000000001 1.5000000000000002 0.98755000000000015 0.29170000000000001
decision_type=2 2 2 2 2 2 2 2 2 2
left_child=1 -1 7 5 -5 -4 9 -2 -9 -3
right_child=2 6 3 4 -6 -7 -8 8 -10 -11
leaf_value=-0.036889998655994759 -0.050940467204187947 -0.009377668528578173 0.041651430553512225 -0.038882579107660187 -0.00053598065808339683 0.0046254303143531128 0.054869654174572881 -0.032970996304849419 0.02143660116195276 0.0066793360182601756
leaf_weight=0.97039092890918155 1.8616377413272855 0.22768054343760002 6.5687808357179192 5.967726342380046 173.16024934919551 17.56411943025887 2.8950925841927528 1.4873158037662499 1.4035011082887647 1.2292328290641306
leaf_count=8 17 6 66 34 1180 125 13 6 7 24
internal_value=0 0.0220504 -0.000666999 0.000155918 -0.00205004 0.0161588 0.0405641 -0.0306408 -0.00655039 0
internal_weight=213.336 5.3224 208.013 203.261 179.128 24.1329 4.35201 4.75245 2.89082 1.45691
internal_count=1486 51 1435 1405 1214 191 43 30 13 30
is_linear=0
shrinkage=0.05


Tree=42
num_leaves=15
num_cat=0
split_feature=18 18 20 3 3 10 20 6 18 20 20 9 20 3
split_gain=1.48905 1.88955 1.61783 1.58126 2.94876 2.64366 0.786166 0.588574 0.86785 2.42088 0.715371 0.512307 0.450979 0.0430551
threshold=3.5000000000000004 8.5000000000000018 -0.076049999999999993 0.63380000000000003 0.66365000000000018 0.72500000000000009 0.074450000000000016 0.96790000000000009 1.5000000000000002 -0.017099999999999997 -0.071049999999999988 0.56500000000000006 -0.17189999999999997 0.62290000000000012
decision_type=2 2 2 2 2 2 2 2 2 2 2 2 2 2
left_child=7 2 -2 5 -5 -3 -4 8 13 -10 12 -12 -9 -1
right_child=1 3 6 4 -6 -7 -8 10 9 -11 11 -13 -14 -15
leaf_value=-0.0078779308447842183 -0.023232596944752208 0.029232571300870865 0.056161674261755792 -0.015926995164447535 0.0018573098083820611 -0.038042024425008598 0.0078858651841985494 0.0074509829903491908 0.038516226871007087 -0.022431491707842102 -0.013253752061363781 0.02487489440575813 -0.03150597533380621 -0.042392260271239379
leaf_weight=1.0503102093934997 0.465572029352188 8.2317104339599574 2.1706892251968375 26.314256273210049 156.8954955842346 0.78798527643084604 2.0423615500330925 0.41243437677621841 1.19623277336359 5.2222224026918411 0.32450818270444814 2.0890902578830719 0.98976060003042243 2.7524330406449735
leaf_count=24 4 60 20 186 956 7 9 4 6 28 9 25 15 133
internal_value=0 0.0011525 0.0295871 0.000285023 -0.000742486 0.0196461 0.0397201 -0.0151685 -0.0209612 -0.00673767 0.000440377 0.0159029 -0.0196343 -0.0375257
internal_weight=210.945 196.908 4.67862 192.229 183.21 9.0197 4.21305 14.037 10.2212 6.41846 3.81579 2.4136 1.40219 3.80274
internal_count=1486 1242 33 1209 1142 67 29 244 191 34 53 34 19 157
is_linear=0
shrinkage=0.05


Tree=43
num_leaves=15
num_cat=0
split_feature=21 19 3 0 3 20 7 20 20 1 3 20 20 7
split_gain=2.36643 1.82674 2.93011 2.63545 2.60271 1.88932 1.65346 1.44713 4.5684 3.93193 2.51332 2.17304 3.58194 2.77556
threshold=1.0000000180025095e-35 1.5000000000000002 0.88695000000000002 5.5000000000000009 0.76055000000000017 0.092700000000000018 0.99555000000000016 -0.0029999999999999996 -0.0081499999999999993 8.0000000000000018 0.90955000000000019 0.0081500000000000027 0.011900000000000003 0.99665000000000015
decision_type=2 2 2 2 2 2 2 2 2 2 2 2 2 2
left_child=1 2 6 5 -5 -3 -1 8 9 -2 -10 13 -13 -9
right_child=7 3 -4 4 -6 -7 -8 11 10 -11 -12 12 -14 -15
leaf_value=-0.039920863561359959 0.0013042124194802599 0.034453599581441029 0.035701605466841486 -0.010519379690987977 0.010083010871780373 -0.013148595132739702 0.010921497255923339 -0.04816852213537428 0.05440329186879559 -0.029129291765204381 -0.0098462478417503368 0.038661839086042468 -0.011336667410941801 0.011065713099419384
leaf_weight=5.5039644092321378 55.12587819295004 11.934553747996686 1.3034878429025409 20.620788402855396 51.019137814640999 1.7713519940152753 1.4533792771399019 6.3747822288423759 4.4502789080142966 12.04746090620756 1.5688756704330442 3.0256881453096858 30.723127188161016 2.0912223123013973
leaf_count=59 348 240 19 109 313 14 28 38 24 94 3 16 168 13
internal_value=0 0.00587341 -0.0151834 0.0081217 0.00402082 0.0274857 -0.0286338 -0.00477344 -0.000413032 -0.00442788 0.0379275 -0.0120334 -0.00572664 -0.0333853
internal_weight=209.014 93.6067 8.26083 85.3458 71.6399 13.7059 6.95734 115.407 73.1925 67.1733 6.01915 42.2148 33.7488 8.466
internal_count=1486 782 106 676 422 254 87 704 469 442 27 235 184 51
is_linear=0
shrinkage=0.05


Tree=44
num_leaves=11
num_cat=0
split_feature=5 7 11 11 20 18 20 5 5 5
split_gain=1.45671 1.93277 10.9169 3.53251 1.79331 1.67137 0.426494 0.112024 0.620441 0.0201404
threshold=0.91515000000000002 0.99745000000000006 0.027650000000000004 0.024800000000000003 0.058800000000000012 1.5000000000000002 0.062750000000000014 0.92815000000000014 0.93290000000000017 0.92500000000000016
decision_type=2 2 2 2 2 2 2 2 2 2
left_child=1 2 -1 4 -3 -4 7 9 -9 -2
right_child=6 3 5 -5 -6 -7 -8 8 -10 -11
leaf_value=0.06557132217911936 0.01202523622259458 -0.010979198751323943 -0.02911407391003017 -0.058698507249554679 0.031389528879221355 -0.00045066657584484214 -0.0034337151841735409 -0.019308640680834765 0.024636655759661886 0.042562065115852331
leaf_weight=5.3133353795856229 1.8308236598968497 16.683708326891072 4.2621202846057704 2.804196127690374 1.8893587514758099 168.9878188194707 0.68740824237465847 0.45398488640785195 0.73172128945589066 1.4612814709544182
leaf_count=39 11 169 136 24 14 1062 7 2 13 9
internal_value=0 -0.000734515 0.000969932 -0.0146022 -0.00503025 -0.00134754 0.0239398 0.0289144 0.0043873 0.033503
internal_weight=205.106 199.941 178.563 21.3773 18.5731 173.25 5.16522 4.47781 1.18571 3.29211
internal_count=1486 1444 1237 207 183 1198 42 35 15 20
is_linear=0
shrinkage=0.05


Tree=45
num_leaves=15
num_cat=0
split_feature=6 18 20 20 3 20 20 20 5 7 3 20 3 3
split_gain=2.13935 2.02619 1.7866 3.19707 2.84413 1.71778 6.19375 3.69298 1.62425 1.28723 2.42739 1.00708 0.0788542 0.351435
threshold=0.96790000000000009 1.5000000000000002 -0.039749999999999994 -0.026649999999999997 0.67535000000000012 0.039750000000000008 0.043550000000000005 0.033450000000000008 0.87930000000000008 0.99475000000000013 0.68775000000000008 -0.13204999999999997 0.62290000000000012 0.61910000000000009
decision_type=2 2 2 2 2 2 2 2 2 2 2 2 2 2
left_child=1 12 9 8 -5 7 -7 -3 -4 10 -2 -11 13 -1
right_child=2 5 3 4 -6 6 -8 -9 -10 11 -12 -13 -14 -15
leaf_value=-0.021881781064776444 -0.028179838794128338 -0.00020274772709410376 -0.058614457248412424 -0.033500763709130757 0.013702840548282767 -0.063009450696070307 -0.0031391498022784662 0.050522976943640788 0.0075344893585564711 0 0.022634527000367187 0.047097694629040239 -0.040917365498901126 0.011899238811652503
leaf_weight=0.57984760962426596 2.2662372849881631 109.95943656563759 2.0121547430753739 2.6455239392817047 24.106554259546101 3.9514228180050841 36.789403382688761 2.7029114030301562 0.86690632998943318 1.2526976838707922 7.3161976132541895 5.0639927275478831 2.5385965602472425 0.42417307198047638
leaf_count=20 24 722 13 47 214 13 192 16 6 11 42 29 133 4
internal_value=0 -0.0027759 0.00942271 0.00177642 0.00781575 -0.00175532 -0.0104361 0.00140403 -0.0405999 0.0224288 0.00861722 0.0386563 -0.0357533 -0.00629899
internal_weight=202.476 156.946 45.5303 29.6311 26.7521 153.403 40.7408 112.662 2.87906 15.8991 9.58243 6.31669 3.54262 1.00402
internal_count=1486 1100 386 280 261 943 205 738 19 106 66 40 157 24
is_linear=0
shrinkage=0.05


Tree=46
num_leaves=15
num_cat=0
split_feature=21 5 5 20 5 3 6 5 5 5 9 20 3 3
split_gain=2.09191 2.20152 3.96554 3.45623 2.227 1.41356 1.63296 1.21432 2.57396 1.43583 1.25094 1.39166 0.497886 0.204417
threshold=1.0000000180025095e-35 0.74320000000000019 0.66775000000000018 0.014900000000000002 0.51505000000000012 0.94170000000000009 0.81785000000000008 0.34595000000000004 0.37170000000000009 0.46235000000000009 0.56500000000000006 -0.041599999999999991 0.94780000000000009 0.63955000000000017
decision_type=2 2 2 2 2 2 2 2 2 2 2 2 2 2
left_child=1 2 4 -4 -1 6 -3 10 13 -10 -2 -12 -7 -9
right_child=7 5 3 -5 -6 12 -8 8 9 -11 11 -13 -14 -15
leaf_value=-0.003690849759331621 -0.022410552205078819 -0.018033928888551414 -0.042674433340524009 0.0047420061754217206 0.015658185709201029 -0.033177960602044011 0.031251268329505748 -0.0022525283143585628 0.0082786110316955559 -0.0067120558057314015 -0.0076480477671451138 0.048534019866300043 0.0072736248033868538 -0.044757276186565047
leaf_weight=24.609279138967395 0.54180025868117754 1.1111728325486208 7.3519079713150841 6.4692821223288774 34.184096066281199 0.67734810709953197 13.750784263014792 0.69254567474126716 18.555783583782613 83.141776041593403 1.1011337740346792 2.2272545685991645 0.57019442692399025 3.4330434184521437
leaf_count=213 8 9 67 48 271 2 163 6 115 517 13 17 9 28
internal_value=0 0.00567388 0.00177146 -0.0213204 0.00754932 0.0218404 0.0263466 -0.00459904 -0.00571124 -0.00387419 0.0197137 0.0313193 -0.0174546 -0.0404292
internal_weight=198.417 88.7241 72.6146 13.8212 58.7934 16.1095 14.862 109.693 105.823 101.698 3.87019 3.32839 1.24754 4.12559
internal_count=1486 782 599 115 484 183 172 704 666 632 38 30 11 34
is_linear=0
shrinkage=0.05


Tree=47
num_leaves=13
num_cat=0
split_feature=6 18 5 11 11 11 3 3 20 3 3 20
split_gain=1.53871 2.08749 1.38167 2.48004 1.49813 1.29552 2.48285 2.81747 1.02747 2.07569 1.07991 0.369673
threshold=0.96790000000000009 1.5000000000000002 0.34595000000000004 0.065400000000000014 0.058400000000000007 0.032750000000000008 0.88945000000000018 0.68775000000000008 0.0044500000000000008 0.74890000000000012 0.67535000000000012 -0.020649999999999998
decision_type=2 2 2 2 2 2 2 2 2 2 2 2
left_child=1 -1 3 -3 -4 8 7 -7 9 -2 -10 -8
right_child=5 2 4 -5 -6 6 11 -9 10 -11 -12 -13
leaf_value=-0.036543793743164278 0.03169779264980261 0.040260186687176486 -0.0045017473270176243 -0.030833177207187909 0.0092620879153257323 -0.02170689013223244 -0.0018944301132119699 0.018055033403532979 -0.011621641757195976 -0.0085566821996207812 0.03768248093303872 -0.04197180583028972
leaf_weight=3.3540747687220565 4.1455856449902075 3.6192893534898749 121.48265509493649 0.76816271245479573 22.44352300465107 5.0759277306497159 1.142844043672085 15.533013368956743 0.66169324517249961 7.3866901844739914 6.5178345516324043 2.358602497726678
leaf_count=157 43 31 754 6 152 58 6 145 7 55 55 17
internal_value=0 -0.00237057 -0.00132469 0.0234722 -0.00227185 0.00825858 0.000262383 0.00747906 0.0177721 0.00688953 0.0316619 -0.0333284
internal_weight=194.49 151.668 148.314 4.38745 143.926 42.8222 24.1104 20.6089 18.7118 11.5323 7.17953 3.50145
internal_count=1486 1100 943 37 906 386 226 203 160 98 62 23
is_linear=0
shrinkage=0.05


Tree=48
num_leaves=13
num_cat=0
split_feature=18 5 5 18 18 3 21 3 6 11 11 3
split_gain=1.40257 1.5263 5.12259 3.861 2.70359 2.68964 2.66902 2.28137 0.720858 0.541177 0.219172 0.163507
threshold=1.5000000000000002 0.58585000000000009 0.63280000000000014 17.000000000000004 13.500000000000002 0.65060000000000018 1.0000000180025095e-35 0.70325000000000004 0.96790000000000009 0.026850000000000002 0.026750000000000006 0.69945000000000002
decision_type=2 2 2 2 2 2 2 2 2 2 2 2
left_child=8 3 4 6 -3 -5 -2 -4 -1 10 -10 -11
right_child=1 2 7 5 -6 -7 -8 -9 9 11 -12 -13
leaf_value=-0.034860679408990125 0.014072173082417037 0 0.021547536749275953 0.00080513411821908588 0.050221547014817562 -0.038730450964815755 -0.0049051646210718468 -0.0028202549277754857 0 -0.026739369489977301 0.026344476705521171 0
leaf_weight=3.2397785680368534 26.342229520902038 3.6604578420519811 10.235342742875217 6.3970220834016827 7.8740569148212671 10.570898726582525 56.188429694622755 64.673515247181058 1.1742300726473334 0.80042864196002472 0.49703840166330326 1.0311294607818124
leaf_count=157 225 29 94 42 58 62 306 460 15 20 2 16
internal_value=0 0.000863686 0.00571117 -0.00331293 0.0353046 -0.0243317 0.00118814 0.000683424 -0.0208533 -0.00192272 0.0135584 -0.0176143
internal_weight=192.685 185.942 86.4434 99.4986 11.5345 16.9679 82.5307 74.9089 6.74261 3.50283 1.67127 1.83156
internal_count=1486 1276 641 635 87 104 531 554 210 53 17 36
is_linear=0
shrinkage=0.05


Tree=49
num_leaves=16
num_cat=0
split_feature=6 16 20 5 5 7 20 20 14 5 20 20 20 21 20
split_gain=0.966989 1.54548 2.56904 2.17118 2.113 1.50905 1.49144 0.97618 2.69975 2.09934 1.77622 1.53864 1.37462 0.234252 0.173159
threshold=0.96790000000000009 1.0000000180025095e-35 -0.017099999999999997 0.52685000000000015 0.56830000000000014 0.9699000000000001 0.12925000000000003 -0.061349999999999995 0.66365000000000018 0.7199000000000001 -0.012599999999999998 -0.13204999999999997 -0.078099999999999989 1.0000000180025095e-35 -0.033449999999999994
decision_type=2 2 2 2 2 2 2 2 2 2 2 2 2 2 2
left_child=1 2 4 -4 -1 14 -7 9 13 11 -10 -2 -11 -9 -3
right_child=7 5 3 -5 -6 6 -8 8 10 12 -12 -13 -14 -15 -16
leaf_value=-0.014933686530342839 0 0.0012233533682294096 0 -0.050030351553882371 0.03278578819311994 -0.0022649885044798749 0.019533575385262587 -0.0041734802622378784 -0.0092988884317016535 -0.037755031476200913 0.015582947047091506 0.045258010404752115 0.017765887236572141 -0.048539189574151646 0.042746185787512589
leaf_weight=4.634357673116031 2.433017997071147 0.64288540557026852 3.0806986913084966 5.4212724943645298 2.9119454934261739 122.9110989603214 7.3581909760832778 0.86891750991344752 10.083428394049408 1.4793080147355797 19.044862324371934 5.1241013966500741 1.0757162272930143 1.5618215724825857 1.2476391494274128
leaf_count=31 23 8 20 77 41 863 51 31 67 16 201 30 6 12 9
internal_value=0 -0.00189818 -0.0160673 -0.0334704 0.00457677 -3.23223e-05 -0.000856193 0.00663736 0.00190871 0.0194452 0.00678082 0.0318808 -0.0145511 -0.0399764 0.0356641
internal_weight=189.879 148.208 16.0483 8.50197 7.5463 132.16 130.269 41.6712 31.559 10.1121 29.1283 7.55712 2.55502 2.43074 1.89052
internal_count=1486 1100 169 97 72 931 914 386 311 75 268 53 22 43 17
is_linear=0
shrinkage=0.05


Tree=50
num_leaves=14
num_cat=0
split_feature=18 20 19 5 20 5 20 14 6 20 14 14 14
split_gain=1.34552 1.43286 2.39347 3.65963 2.77692 2.2557 3.30174 2.72671 0.476927 0.699088 0.85866 0.0790822 0.296472
threshold=1.5000000000000002 -0.023899999999999998 1.5000000000000002 0.44035000000000007 0.0081500000000000027 0.4179000000000001 -0.026999999999999996 0.63060000000000016 0.96790000000000009 -0.012599999999999998 0.61290000000000011 0.62290000000000012 0.61910000000000009
decision_type=2 2 2 2 2 2 2 2 2 2 2 2 2
left_child=8 5 4 -4 -3 7 -7 -2 11 10 -10 12 -1
right_child=1 2 3 -5 -6 6 -8 -9 9 -11 -12 -13 -14
leaf_value=-0.019823409649264129 0.027158172671474752 -0.040487676811073375 0.030682262740030122 -0.0022811009270974022 -0.0024976543884604151 0.0067931049038852526 0.053099558361192178 -0.029922277606160855 0.0095709720166590878 0.019436729698933994 -0.035830651852328629 -0.037882549154393153 0.011433705850573822
leaf_weight=0.53132743760943357 1.8936610072851161 7.230856321752074 8.2973473779857141 87.449200895149261 12.667754616588352 54.225498897954822 3.2496293783187857 6.8671763129532337 1.0278021842241294 0.97488050907850254 1.3571884036064146 2.1455511064268649 0.40625250339508057
leaf_count=20 19 70 69 680 72 305 16 45 7 20 26 133 4
internal_value=0 0.000848121 -0.0024766 0.00081142 -0.0178187 0.00667781 0.0103601 -0.0155537 -0.0208391 -0.00382267 -0.0177405 -0.0326805 -0.00478817
internal_weight=188.324 181.881 115.645 95.7465 19.8986 66.236 57.4751 8.76084 6.443 3.35987 2.38499 3.08313 0.93758
internal_count=1486 1276 891 749 142 385 321 64 210 53 33 157 24
is_linear=0
shrinkage=0.05


Tree=51
num_leaves=14
num_cat=0
split_feature=18 18 7 5 7 0 7 7 11 5 14 14 9
split_gain=1.27702 1.33354 2.37169 3.59575 2.34735 2.31021 1.7317 1.54388 0.465823 0.171838 0.229381 0.0913986 0.0279897
threshold=1.5000000000000002 11.500000000000002 0.99145000000000005 0.55500000000000005 0.99185000000000012 8.5000000000000018 0.99425000000000008 0.98620000000000008 0.021750000000000002 0.87755000000000016 0.62225000000000008 0.89775000000000016 0.60500000000000009
decision_type=2 2 2 2 2 2 2 2 2 2 2 2 2
left_child=8 2 3 -2 7 -6 -4 -3 12 10 -10 -11 -1
right_child=1 4 6 -5 5 -7 -8 -9 9 11 -12 -13 -14
leaf_value=0.011042022690312058 0.048269964729444413 0.0031788832261915052 -0.012968370277846095 -0.0036358074186030073 -2.9288034758341325e-06 0.020301428662922012 0.014677808784745198 -0.014478324547033043 -0.0048917506316326935 0.0089172464641549386 -0.034704494765846687 -0.0094827929529024066 0
leaf_weight=0.30888236500322719 6.7566567808389646 16.775252256542444 11.67848312109709 5.3320119380950928 74.855162226594985 16.097320428583771 9.2168332673609239 39.507901042699814 1.7117423862218855 0.33418680820614088 3.2206998146139085 0.36122210137546062 0.27761095948517323
leaf_count=6 45 130 55 32 545 128 64 277 26 7 150 13 8
internal_value=0 0.000821268 0.00976734 0.026465 -0.00120149 0.00371798 -0.000431989 -0.00916467 -0.0206297 -0.0250086 -0.0277697 0 0.00751565
internal_weight=186.434 180.22 32.984 12.0887 147.236 90.9525 20.8953 56.2832 6.21434 5.62785 4.93244 0.695409 0.586493
internal_count=1486 1276 196 77 1080 673 119 407 210 196 176 20 14
is_linear=0
shrinkage=0.05


Tree=52
num_leaves=14
num_cat=0
split_feature=18 5 5 5 20 7 20 5 6 20 3 3 3
split_gain=1.16649 1.17622 3.64444 2.58589 2.73681 2.32917 1.9214 1.80481 0.437633 0.648983 0.711478 0.0302799 0.267403
threshold=1.5000000000000002 0.58585000000000009 0.63280000000000014 0.55925000000000014 0.062750000000000014 0.99585000000000012 -0.11969999999999999 0.63865000000000005 0.96790000000000009 -0.012599999999999998 0.61290000000000011 0.62290000000000012 0.61910000000000009
decision_type=2 2 2 2 2 2 2 2 2 2 2 2 2
left_child=8 3 5 4 -2 -3 -5 -4 11 10 -10 12 -1
right_child=1 2 7 6 -6 -7 -8 -9 9 -11 -12 -13 -14
leaf_value=-0.019356487040011854 0.0044091033538287703 0.040772215878191187 -0.035467494512309322 0.029910031167697443 -0.018959808990477112 -0.01337613711338464 -0.029721332481638215 0.0025595753552480342 0.0079604356879496053 0.019069710728729584 -0.034020275152598249 -0.036198769526197189 0.010423784541866751
leaf_weight=0.52089994959533159 69.032429050654173 8.977343703620134 2.2574300020933142 0.63259850442409415 14.253145514056085 1.8037139773368824 11.057640068233011 70.11376428976655 0.99708785861730653 0.94762168824672688 1.2560502439737318 1.9598296950571237 0.3877398893237114
leaf_count=20 495 68 15 3 70 19 67 539 7 20 26 133 4
internal_value=0 0.000786193 0.0051191 -0.00296902 0.000173025 0.0309221 -0.0239978 0.000838042 -0.0199214 -0.00326445 -0.0171692 -0.031567 -0.00522559
internal_weight=184.197 178.128 83.1523 94.9758 83.2856 10.7811 11.6902 72.3712 6.06923 3.20076 2.25314 2.86847 0.90864
internal_count=1486 1276 641 635 565 87 70 554 210 53 33 157 24
is_linear=0
shrinkage=0.05


Tree=53
num_leaves=13
num_cat=0
split_feature=5 20 20 3 5 5 20 6 20 3 16 20
split_gain=0.958898 5.04841 3.43088 3.47221 3.35354 2.57784 3.06873 4.1802 2.48322 2.29125 1.64221 1.5578
threshold=0.52795000000000014 0.062750000000000014 -0.033099999999999997 0.68125000000000013 0.40025000000000005 0.53570000000000018 0.08345000000000001 0.81785000000000008 -0.015299999999999998 0.65060000000000018 4.5000000000000009 0.10015000000000002
decision_type=2 2 2 2 2 2 2 2 2 2 2 2
left_child=1 2 9 -4 -3 10 8 -8 -7 -1 -2 -6
right_child=5 4 3 -5 11 6 7 -9 -10 -11 -12 -13
leaf_value=0.0062511432069797318 0.057133957014375229 0.029366981937998884 -0.0017168122558587587 0.030014344988543447 -0.060280623836495441 0.007566802815731047 0.047235249368433853 -0.006799084234497068 -0.0086408282371618784 -0.022347194989922433 -0.010247640112234092 -0.015771358110661163
leaf_weight=10.504057853482665 2.4053660668432708 1.0660414993762959 19.254399197176099 14.079844340682028 5.3354279883205873 39.755665630567819 6.9358207415789348 5.8593155168928206 54.93465556204319 17.022634073160589 0.71064744517207135 4.7750509772449732
leaf_count=98 21 5 150 127 27 287 50 50 522 118 5 26
internal_value=0 -0.00445407 0.0013255 0.0120241 -0.0338611 0.00291496 0.00136684 0.0234295 -0.00177585 -0.0114223 0.0417958 -0.043021
internal_weight=182.639 72.0375 60.8609 33.3342 11.1765 110.601 107.485 12.7951 94.6903 27.5267 3.11601 10.1105
internal_count=1486 551 493 277 58 935 909 100 809 216 26 53
is_linear=0
shrinkage=0.05


Tree=54
num_leaves=14
num_cat=0
split_feature=18 3 3 7 3 7 7 11 18 20 20 20 3
split_gain=1.19659 1.16851 1.48788 1.15095 1.14544 0.807954 0.570484 0.435913 0.435442 0.296235 0.326396 0.0375053 0.0133416
threshold=1.5000000000000002 0.62055000000000005 0.62550000000000006 0.9960500000000001 0.91305000000000003 0.99075000000000013 0.99625000000000008 0.021750000000000002 15.000000000000002 -0.04034999999999999 -0.039749999999999994 -0.20709999999999998 0.91180000000000005
decision_type=2 2 2 2 2 2 2 2 2 2 2 2 2
left_child=7 3 6 5 -4 -2 -3 11 -5 -9 -11 -1 -13
right_child=1 2 4 8 -6 -7 -8 9 -10 10 -12 12 -14
leaf_value=0.011686256111238982 -0.0044159330284775046 -0.048034459282945911 -0.00017556519496030382 0.012068058582919965 0.01779868299069828 0.052562170868067248 0 -0.034253522872661799 -0.02584517755304977 0.015323738353385203 -0.014022436722866599 -0.0049832899694845813 0.0019366513855588248
leaf_weight=0.26936542987823486 0.41641339659690846 1.1861193478107446 159.8626591055654 0.43545462936162938 8.3549994640052301 1.8014795556664465 0.87387394905090321 2.8414890449494123 0.55927272886037827 0.28458476066589389 2.2310680565424263 0.17475900985300441 0.11474155634641647
leaf_count=1 8 5 1151 8 75 16 6 92 7 2 102 10 3
internal_value=0 0.000808461 0.000134565 0.026829 0.000787535 0.0422628 -0.0343847 -0.0203974 -0.00901202 -0.0247292 -0.005866 0.00714547 0
internal_weight=179.406 173.49 170.278 3.21262 168.218 2.21789 2.05999 5.91601 0.994727 5.35714 2.51565 0.558866 0.289501
internal_count=1486 1276 1237 39 1226 24 11 210 15 196 104 14 13
is_linear=0
shrinkage=0.05


Tree=55
num_leaves=11
num_cat=0
split_feature=5 7 5 7 7 7 20 19 20 20
split_gain=1.22558 2.0425 1.38189 1.05917 2.39035 2.24381 0.62572 0.689292 0.337745 0.266189
threshold=0.34595000000000004 0.98415000000000008 0.35515000000000002 0.98250000000000015 0.9910500000000001 0.98010000000000008 -0.041599999999999991 1.5000000000000002 0.012600000000000002 -0.11969999999999999
decision_type=2 2 2 2 2 2 2 2 2 2
left_child=1 -1 8 5 -5 -4 9 -8 -2 -3
right_child=2 6 3 4 -6 -7 7 -9 -10 -11
leaf_value=-0.027865749539326343 -0.043404192335340264 0.014347246090158694 0.00086058840004261971 -0.011882349962523161 0.0021729845390795065 0.046821060952512351 0 0.05278096680379734 0 -0.017038365868438356
leaf_weight=0.69926556758582492 1.3302578032016747 0.27038127183914185 10.858275791630147 39.225870505906641 120.03130557062104 2.638197496533393 0.5413373280316599 2.6057416349649425 0.69090252369642247 0.39204613957554135
leaf_count=8 13 4 92 322 982 21 11 19 5 9
internal_value=0 0.0232226 -0.000727796 -0.000111821 -0.00131026 0.0127996 0.037484 0.0447957 -0.034258 -0.000295784
internal_weight=179.284 4.50877 174.775 172.754 159.257 13.4965 3.80951 3.14708 2.02116 0.662427
internal_count=1486 51 1435 1417 1304 113 43 30 18 13
is_linear=0
shrinkage=0.05


Tree=56
num_leaves=13
num_cat=0
split_feature=5 9 20 19 5 20 5 16 20 16 5 20
split_gain=2.53485 1.68083 1.89825 1.99422 1.55808 3.95268 3.2057 2.74621 2.19165 1.58741 0.874729 0.458623
threshold=0.34595000000000004 0.56500000000000006 -0.041599999999999991 1.5000000000000002 0.52795000000000014 0.062750000000000014 0.53570000000000018 3.5000000000000004 0.054900000000000011 4.5000000000000009 0.44035000000000007 -0.11969999999999999
decision_type=2 2 2 2 2 2 2 2 2 2 2 2
left_child=1 -1 11 -4 5 7 9 -2 -8 -6 -7 -3
right_child=4 2 3 -5 6 10 8 -9 -10 -11 -12 -13
leaf_value=-0.021884945619409443 -0.0090705954490302547 0.013810107851049913 -0.0075485621986204222 0.068646675213245162 0.058966826487531758 0 -0.0025951619025680523 0.014318514485242068 0.015778534774949102 -0.0087955526809792104 -0.041010749878821057 -0.02617605060524561
leaf_weight=0.52659546583890815 38.849603392183781 0.26266941428184509 0.71528589911758933 3.0319970920681953 2.5936714662238951 1.761635050177573 86.771218596491963 17.264911210164428 18.879961021244526 0.67331152409315098 8.1075038686394674 0.65153268724679936
leaf_count=10 330 4 11 16 21 10 760 115 149 5 45 10
internal_value=0 0.0314529 0.0411627 0.0545228 -0.00110649 -0.00713187 0.00252994 -0.00166216 0.000758511 0.0450411 -0.0347576 -0.0108625
internal_weight=180.09 5.18808 4.66149 3.74728 174.902 65.9837 108.918 56.1145 105.651 3.26698 9.86914 0.914202
internal_count=1486 51 41 27 1435 500 935 445 909 26 55 14
is_linear=0
shrinkage=0.05


Tree=57
num_leaves=13
num_cat=0
split_feature=9 3 3 11 3 7 10 9 20 10 10 3
split_gain=1.39929 2.4616 1.51852 3.94142 2.60401 1.12371 1.07822 1.71638 0.837289 0.446828 0.347198 0.241723
threshold=0.56500000000000006 0.62055000000000005 0.66415000000000013 0.038650000000000011 0.69290000000000018 0.99745000000000006 0.72500000000000009 0.55500000000000016 -0.064599999999999977 0.63500000000000012 0.70500000000000007 0.61530000000000007
decision_type=2 2 2 2 2 2 2 2 2 2 2 2
left_child=6 5 3 -3 -4 -2 7 11 -8 -7 -9 -1
right_child=1 2 4 -5 -6 9 8 10 -10 -11 -12 -13
leaf_value=0 0.053106179583104179 0.004513391538822297 0.018575469013533279 -0.031901410690823744 -0.00071056592761527997 0.016232407757733072 0.0046784764568424189 -0.037291964300470284 -0.054043297933152538 -0.02140501437839883 0.0019523060262691618 0.036888036827745795
leaf_weight=0.31948202289640826 2.2190057076513763 17.399852221831683 19.385059926658869 11.470911526121197 120.61163149215281 0.62422310188412644 0.39620194211602244 1.1799396239221094 1.7867142576724289 0.50474442541599274 0.32515305280685436 1.0037708878517149
leaf_count=21 17 149 147 98 990 5 7 18 14 7 3 10
internal_value=0 0.000823022 -0.000103286 -0.0103711 0.00203727 0.0379729 -0.0237155 0 -0.043693 -0.000396448 -0.0294229 0.0302241
internal_weight=177.227 172.215 168.867 28.8708 139.997 3.34797 5.01126 2.82835 2.18292 1.12897 1.50509 1.32325
internal_count=1486 1413 1384 247 1137 29 73 52 21 12 21 31
is_linear=0
shrinkage=0.05


Tree=58
num_leaves=13
num_cat=0
split_feature=18 18 7 20 10 3 3 11 11 20 20 19
split_gain=1.09523 0.989959 2.46983 1.76484 1.73616 1.55958 2.07136 1.63453 0.356209 0.262901 0.216388 0.128573
threshold=1.5000000000000002 11.500000000000002 0.99185000000000012 0.12785000000000005 0.65500000000000014 0.84130000000000005 0.86395000000000011 0.048450000000000007 0.021750000000000002 -0.012599999999999998 -0.0029999999999999996 1.5000000000000002
decision_type=2 2 2 2 2 2 2 2 2 2 2 2
left_child=8 5 3 -3 -4 7 -7 -2 11 -10 -11 -1
right_child=1 2 4 -5 -6 6 -8 -9 9 10 -12 -13
leaf_value=-0.0063200172138840344 0.0050381654151288105 -0.012459611423401221 -0.04034176473437362 0.017740384590386401 0.0052336516997197116 -0.04188540144975527 0.0054267249067588424 0.035275006893163131 -0.030202852425090063 0.011213914925397443 -0.013097159664934474 0.01519352086672305
leaf_weight=0.20219437964260578 12.567831631749874 47.574558136984706 1.1291042789816845 4.3662346489727488 85.497694904450327 2.0027886629104605 8.8712395057082158 6.7975511774420729 3.5285349595360458 0.5579002322629093 1.0558914169669149 0.37108837813138862
leaf_count=10 79 377 17 30 656 11 58 48 125 12 59 4
internal_value=0 0.000783225 -0.000990302 -0.00953936 0.00412895 0.00884175 -0.00565979 0.0171082 -0.0198042 -0.0238071 -0.00170487 0.0052335
internal_weight=174.523 168.807 138.568 51.9408 86.6268 30.2394 10.874 19.3654 5.71561 5.14233 1.61379 0.573283
internal_count=1486 1276 1080 407 673 196 69 127 210 196 71 14
is_linear=0
shrinkage=0.05


Tree=59
num_leaves=10
num_cat=0
split_feature=7 7 7 18 3 3 20 5 16
split_gain=0.98247 6.91417 3.26779 1.49239 1.45354 2.58285 1.45212 1.01521 0.155545
threshold=0.99745000000000006 0.99695000000000011 0.99755000000000016 15.000000000000002 0.91305000000000003 0.90665000000000007 -0.015849999999999996 0.51300000000000012 1.0000000180025095e-35
decision_type=2 2 2 2 2 2 2 2 2
left_child=1 4 -2 7 5 -1 -5 -4 -6
right_child=2 -3 3 6 8 -7 -8 -9 -10
leaf_value=-8.8392692478667808e-05 -0.052870383646120955 0.057820543200723939 -0.00075908089928675485 -0.015702348985901598 0 -0.042010146695593983 0.01853356195750424 -0.038274150182352425 0.041641545518193462
leaf_weight=142.11221935460344 2.6747195078060058 4.256360597908496 4.2655907589942244 3.3926982171833542 0.403387650847434 2.7789550349116316 9.3764692386612243 2.6013770191930234 1.2195285391062496
leaf_count=1164 28 44 40 27 7 17 90 56 13
internal_value=0 0.0014679 -0.00955706 -0.00113875 -0.00051617 -0.00120915 0.00859437 -0.018665 0.0363192
internal_weight=173.081 150.77 22.3109 19.6361 146.514 144.891 12.7692 6.86697 1.62292
internal_count=1486 1245 241 213 1201 1181 117 96 20
is_linear=0
shrinkage=0.05


Tree=60
num_leaves=15
num_cat=0
split_feature=5 5 14 5 21 20 17 14 11 11 11 20 5 20
split_gain=0.990617 3.52064 2.55755 2.97049 2.33736 1.92197 1.75391 1.37426 1.07696 0.951473 1.4563 0.472065 0.376652 0.0845768
threshold=0.73225000000000018 0.71515000000000006 0.87070000000000014 0.52795000000000014 1.0000000180025095e-35 0.048900000000000006 0.19090000000000004 0.94170000000000009 0.074900000000000008 0.050950000000000002 0.042400000000000007 -0.041899999999999993 0.87755000000000016 -0.092699999999999991
decision_type=2 2 2 2 2 2 2 2 2 2 2 2 2 2
left_child=1 2 3 -1 7 8 -4 11 -3 10 -6 -2 -9 -11
right_child=4 5 6 -5 9 -7 -8 12 -10 13 -12 -13 -14 -15
leaf_value=-0.0042468895264396135 0 -0.063169084455848512 -0.04082143926455177 0.012602863135120053 -0.004166052037521825 0.01602988632906989 -0.0071826272954666967 -0.031795638586513963 0 0 0.039106272438460286 0.027866240410919799 0.0048248908582390971 -0.036606594128338929
leaf_weight=59.232043288648129 1.2981781102716929 3.1155614275485273 4.2626036992296603 45.002241735812277 19.221075133886195 0.63438998721539963 19.48206452280283 0.64282692968845256 0.65715347230434407 0.2252366505563258 1.1511686518788327 13.612619137391448 0.48641087859869003 1.1396066918969143
leaf_count=514 8 26 45 393 133 6 138 3 5 4 8 177 8 18
internal_value=0 -0.00204496 -0.00033324 0.00303096 0.00703429 -0.0415728 -0.0148291 0.0209586 -0.0536356 -0.00349062 0 0.0252784 -0.0188156 -0.0335112
internal_weight=170.163 132.386 127.979 104.234 37.7771 4.4071 23.7447 16.04 3.77271 21.7371 20.3722 14.9108 1.12924 1.36484
internal_count=1486 1127 1090 907 359 37 183 196 31 163 141 185 11 22
is_linear=0
shrinkage=0.05


Tree=61
num_leaves=12
num_cat=0
split_feature=7 11 11 11 11 3 6 5 6 7 11
split_gain=0.792637 5.14896 2.40633 1.20743 1.52408 1.23041 0.594063 1.37548 0.244179 0.215937 0.0501632
threshold=0.99745000000000006 0.027650000000000004 0.024800000000000003 0.030050000000000004 0.030350000000000005 0.89410000000000012 0.89875000000000005 0.51300000000000012 0.96790000000000009 0.99925000000000008 0.026350000000000002
decision_type=2 2 2 2 2 2 2 2 2 2 2
left_child=1 10 6 5 -5 -3 7 -2 -4 -8 -1
right_child=2 3 8 4 -6 -7 9 -9 -10 -11 -12
leaf_value=0.0081981990415265146 0.0032373583433129086 -0.033987389387423732 -0.053227959669992303 0.042871961202769204 -2.9748030681359268e-05 0.012740694730112615 0.0119122402463296 -0.030142704875399051 0 -0.0085939576104083742 0.056902971171356745
leaf_weight=0.69571160711348001 8.0343883670866543 3.9437580313533536 1.9317533029243343 1.0985896736383427 136.6617213441059 1.1788364043459294 6.5370126962661734 3.6574263200163832 0.42991134524345387 0.50853740051388729 3.053459657356143
leaf_count=18 72 44 19 9 1136 12 66 70 9 5 26
internal_value=0 0.00132197 -0.00883141 -0.000343266 0.000582843 -0.0220928 -0.00148558 -0.00836286 -0.0478466 0.00892647 0.0525472
internal_weight=167.731 146.632 21.099 142.883 137.76 5.12259 18.7374 11.6918 2.36166 7.04555 3.74917
internal_count=1486 1245 241 1201 1145 56 213 142 28 71 44
is_linear=0
shrinkage=0.05


Tree=62
num_leaves=12
num_cat=0
split_feature=18 3 7 3 3 7 7 6 20 3 18
split_gain=0.981971 0.923836 0.868974 0.732993 1.11519 0.413297 0.402547 0.375144 0.589227 0.510303 0.212415
